{"learner":{"attributes":{"scikit_learn":"{\"_estimator_type\": \"regressor\"}"},"feature_names":["LapTime","TyreLife","TrackTemp","StDevLapTime","AvgRPM","FullThrottlePercent","BrakingPercent","Compound_HARD","Compound_MEDIUM","Compound_SOFT","Compound_UNKNOWN","Compound_nan","Driver_ALB","Driver_ALO","Driver_BOT","Driver_DEV","Driver_GAS","Driver_HAM","Driver_HUL","Driver_LEC","Driver_MAG","Driver_NOR","Driver_OCO","Driver_PER","Driver_PIA","Driver_RUS","Driver_SAI","Driver_SAR","Driver_STR","Driver_TSU","Driver_VER","Driver_ZHO","Driver_nan","Team_Alfa Romeo","Team_AlphaTauri","Team_Alpine","Team_Aston Martin","Team_Ferrari","Team_Haas F1 Team","Team_McLaren","Team_Mercedes","Team_Red Bull Racing","Team_Williams","Team_nan","TrackID_Bahrain Grand Prix","TrackID_Saudi Arabian Grand Prix","TrackID_nan"],"feature_types":["float","float","float","float","float","float","float","i","i","i","i","i","i","i","i","i","i","i","i","i","i","i","i","i","i","i","i","i","i","i","i","i","i","i","i","i","i","i","i","i","i","i","i","i","i","i","i"],"gradient_booster":{"model":{"gbtree_model_param":{"num_parallel_tree":"1","num_trees":"100"},"iteration_indptr":[0,1,2,3,4,5,6,7,8,9,10,11,12,13,14,15,16,17,18,19,20,21,22,23,24,25,26,27,28,29,30,31,32,33,34,35,36,37,38,39,40,41,42,43,44,45,46,47,48,49,50,51,52,53,54,55,56,57,58,59,60,61,62,63,64,65,66,67,68,69,70,71,72,73,74,75,76,77,78,79,80,81,82,83,84,85,86,87,88,89,90,91,92,93,94,95,96,97,98,99,100],"tree_info":[0,0,0,0,0,0,0,0,0,0,0,0,0,0,0,0,0,0,0,0,0,0,0,0,0,0,0,0,0,0,0,0,0,0,0,0,0,0,0,0,0,0,0,0,0,0,0,0,0,0,0,0,0,0,0,0,0,0,0,0,0,0,0,0,0,0,0,0,0,0,0,0,0,0,0,0,0,0,0,0,0,0,0,0,0,0,0,0,0,0,0,0,0,0,0,0,0,0,0,0],"trees":[{"base_weights":[2.6755456E-6,-9.8017514E-1,2.1124525E1,-1.6262424E0,7.719572E-2,7.543945E-2,3.5459065E0,-1.7096133E0,-7.0792073E-1,2.7525347E-1,-1.0417743E-1,-1.7679312E0,-3.6350727E-2,-8.3975315E-2,-5.59645E-2,-3.389494E-1,4.945315E-1,-1.8289691E-1,-8.025211E-2,-4.4397052E-2,5.752144E-2,6.9841124E-2,-4.601209E-2],"categories":[],"categories_nodes":[],"categories_segments":[],"categories_sizes":[],"default_left":[0,0,0,0,0,0,0,0,0,0,0,0,0,0,0,0,0,0,0,0,0,0,0],"id":0,"left_children":[1,3,5,7,9,-1,-1,11,13,15,-1,17,-1,-1,-1,19,21,-1,-1,-1,-1,-1,-1],"loss_changes":[1.3541586E4,4.2708356E2,8.441145E3,2.8495483E1,5.3032475E1,0E0,0E0,2.7225708E1,1.9465256E-1,2.7507902E1,0E0,1.856726E1,0E0,0E0,0E0,5.439728E0,2.9516487E1,0E0,0E0,0E0,0E0,0E0,0E0],"parents":[2147483647,0,0,1,1,2,2,3,3,4,4,7,7,8,8,9,9,11,11,15,15,16,16],"right_children":[2,4,6,8,10,-1,-1,12,14,16,-1,18,-1,-1,-1,20,22,-1,-1,-1,-1,-1,-1],"split_conditions":[1E0,1E0,1.0078637E4,1E0,1E0,7.543945E-2,3.5459065E0,1E0,1E0,2.4667652E-1,-1.0417743E-1,1E0,-3.6350727E-2,-8.3975315E-2,-5.59645E-2,1E0,1E0,-1.8289691E-1,-8.025211E-2,-4.4397052E-2,5.752144E-2,6.9841124E-2,-4.601209E-2],"split_indices":[27,44,4,34,41,0,0,21,15,5,0,12,0,0,0,39,40,0,0,0,0,0,0],"split_type":[0,0,0,0,0,0,0,0,0,0,0,0,0,0,0,0,0,0,0,0,0,0,0],"sum_hessian":[6.52E2,6.24E2,2.8E1,3.87E2,2.37E2,1.2E1,1.6E1,3.54E2,3.3E1,2.02E2,3.5E1,3.39E2,1.5E1,1.5E1,1.8E1,5.3E1,1.49E2,3.18E2,2.1E1,4.8E1,5E0,1.23E2,2.6E1],"tree_param":{"num_deleted":"0","num_feature":"47","num_nodes":"23","size_leaf_vector":"1"}},{"base_weights":[4.773898E-3,-8.829665E-1,1.9136946E1,-1.4647485E0,6.919467E-2,6.847581E-2,3.212174E0,-1.5394931E0,-6.412454E-1,2.4791098E-1,-9.404888E-2,-1.5919096E0,-3.2942533E-2,-7.6102495E-2,-5.0662875E-2,-2.8052074E-1,4.5613787E-1,-1.6466431E-1,-7.2591536E-2,-3.828907E-2,5.2001625E-2,6.485255E-2,-4.1581217E-2],"categories":[],"categories_nodes":[],"categories_segments":[],"categories_sizes":[],"default_left":[0,0,0,0,0,0,0,0,0,0,0,0,0,0,0,0,0,0,0,0,0,0,0],"id":1,"left_children":[1,3,5,7,9,-1,-1,11,13,15,-1,17,-1,-1,-1,19,21,-1,-1,-1,-1,-1,-1],"loss_changes":[1.1107712E4,3.4632022E2,6.926343E3,2.2895142E1,4.317952E1,0E0,0E0,2.199231E1,1.6266918E-1,2.2464798E1,0E0,1.4920288E1,0E0,0E0,0E0,4.952265E0,2.4761515E1,0E0,0E0,0E0,0E0,0E0,0E0],"parents":[2147483647,0,0,1,1,2,2,3,3,4,4,7,7,8,8,9,9,11,11,15,15,16,16],"right_children":[2,4,6,8,10,-1,-1,12,14,16,-1,18,-1,-1,-1,20,22,-1,-1,-1,-1,-1,-1],"split_conditions":[1E0,1E0,1.0078637E4,1E0,1E0,6.847581E-2,3.212174E0,1E0,1E0,3.0405405E-1,-9.404888E-2,1E0,-3.2942533E-2,-7.6102495E-2,-5.0662875E-2,1E0,1E0,-1.6466431E-1,-7.2591536E-2,-3.828907E-2,5.2001625E-2,6.485255E-2,-4.1581217E-2],"split_indices":[27,44,4,34,41,0,0,21,15,5,0,12,0,0,0,39,40,0,0,0,0,0,0],"split_type":[0,0,0,0,0,0,0,0,0,0,0,0,0,0,0,0,0,0,0,0,0,0,0],"sum_hessian":[6.52E2,6.24E2,2.8E1,3.87E2,2.37E2,1.2E1,1.6E1,3.54E2,3.3E1,2.02E2,3.5E1,3.39E2,1.5E1,1.5E1,1.8E1,5.7E1,1.45E2,3.18E2,2.1E1,5.1E1,6E0,1.19E2,2.6E1],"tree_param":{"num_deleted":"0","num_feature":"47","num_nodes":"23","size_leaf_vector":"1"}},{"base_weights":[8.626287E-3,-7.953952E-1,1.7336378E1,-1.319296E0,6.2037077E-2,6.2155154E-2,2.9098518E0,-1.3863039E0,-5.8085096E-1,2.2330423E-1,-8.490537E-2,-1.4334154E0,-2.985406E-2,-6.896782E-2,-4.5863584E-2,-5.9929583E-2,5.589563E-1,-1.482494E-1,-6.566214E-2,-1.8004585E-2,6.645136E-2,6.9936685E-2,-3.589055E-2],"categories":[],"categories_nodes":[],"categories_segments":[],"categories_sizes":[],"default_left":[0,0,0,0,0,0,0,0,0,0,0,0,0,0,0,0,0,0,0,0,0,0,0],"id":2,"left_children":[1,3,5,7,9,-1,-1,11,13,15,-1,17,-1,-1,-1,19,21,-1,-1,-1,-1,-1,-1],"loss_changes":[9.11131E3,2.8083768E2,5.683376E3,1.8393738E1,3.5158703E1,0E0,0E0,1.7764404E1,1.359005E-1,1.9332308E1,0E0,1.19887085E1,0E0,0E0,0E0,9.778575E0,1.2236607E1,0E0,0E0,0E0,0E0,0E0,0E0],"parents":[2147483647,0,0,1,1,2,2,3,3,4,4,7,7,8,8,9,9,11,11,15,15,16,16],"right_children":[2,4,6,8,10,-1,-1,12,14,16,-1,18,-1,-1,-1,20,22,-1,-1,-1,-1,-1,-1],"split_conditions":[1E0,1E0,1.0078637E4,1E0,1E0,6.2155154E-2,2.9098518E0,1E0,1E0,5.34153E-1,-8.490537E-2,1E0,-2.985406E-2,-6.896782E-2,-4.5863584E-2,1E0,1E0,-1.482494E-1,-6.566214E-2,-1.8004585E-2,6.645136E-2,6.9936685E-2,-3.589055E-2],"split_indices":[27,44,4,34,41,0,0,21,15,5,0,12,0,0,0,39,40,0,0,0,0,0,0],"split_type":[0,0,0,0,0,0,0,0,0,0,0,0,0,0,0,0,0,0,0,0,0,0,0],"sum_hessian":[6.52E2,6.24E2,2.8E1,3.87E2,2.37E2,1.2E1,1.6E1,3.54E2,3.3E1,2.02E2,3.5E1,3.39E2,1.5E1,1.5E1,1.8E1,1.1E2,9.2E1,3.18E2,2.1E1,9.5E1,1.5E1,8E1,1.2E1],"tree_param":{"num_deleted":"0","num_feature":"47","num_nodes":"23","size_leaf_vector":"1"}},{"base_weights":[1.1760601E-2,-7.164349E-1,1.5705223E1,-1.188293E0,5.582306E-2,5.6417614E-2,2.6359835E0,-1.2483628E0,-5.2614415E-1,2.013796E-1,-7.665047E-2,-1.2907057E0,-2.7055264E-2,-6.250191E-2,-4.1518923E-2,-2.7216655E-1,3.6625752E-1,-1.3347119E-1,-5.9394736E-2,-7.9722935E-3,-6.4193346E-2,5.181439E-2,-3.5048537E-2],"categories":[],"categories_nodes":[],"categories_segments":[],"categories_sizes":[],"default_left":[0,0,0,0,0,0,0,0,0,0,0,0,0,0,0,0,0,0,0,0,0,0,0],"id":3,"left_children":[1,3,5,7,9,-1,-1,11,13,15,-1,17,-1,-1,-1,19,21,-1,-1,-1,-1,-1,-1],"loss_changes":[7.4736763E3,2.2781393E2,4.6634653E3,1.477594E1,2.864181E1,0E0,0E0,1.4348999E1,1.1350155E-1,1.5949376E1,0E0,9.632202E0,0E0,0E0,0E0,3.720265E0,1.661999E1,0E0,0E0,0E0,0E0,0E0,0E0],"parents":[2147483647,0,0,1,1,2,2,3,3,4,4,7,7,8,8,9,9,11,11,15,15,16,16],"right_children":[2,4,6,8,10,-1,-1,12,14,16,-1,18,-1,-1,-1,20,22,-1,-1,-1,-1,-1,-1],"split_conditions":[1E0,1E0,1.0078637E4,1E0,1E0,5.6417614E-2,2.6359835E0,1E0,1E0,1.872214E-1,-7.665047E-2,1E0,-2.7055264E-2,-6.250191E-2,-4.1518923E-2,1E0,1E0,-1.3347119E-1,-5.9394736E-2,-7.9722935E-3,-6.4193346E-2,5.181439E-2,-3.5048537E-2],"split_indices":[27,44,4,34,41,0,0,21,15,5,0,12,0,0,0,37,40,0,0,0,0,0,0],"split_type":[0,0,0,0,0,0,0,0,0,0,0,0,0,0,0,0,0,0,0,0,0,0,0],"sum_hessian":[6.52E2,6.24E2,2.8E1,3.87E2,2.37E2,1.2E1,1.6E1,3.54E2,3.3E1,2.02E2,3.5E1,3.39E2,1.5E1,1.5E1,1.8E1,5.2E1,1.5E2,3.18E2,2.1E1,3.5E1,1.7E1,1.24E2,2.6E1],"tree_param":{"num_deleted":"0","num_feature":"47","num_nodes":"23","size_leaf_vector":"1"}},{"base_weights":[1.4008725E-2,-6.455215E-1,1.422754E1,-1.0703008E0,4.9688067E-2,5.120967E-2,2.3878906E0,-9.9907935E-1,-1.6184948E-1,1.8097089E-1,-6.919815E-2,-9.059507E-1,-1.5200007E0,-5.727132E-2,4.6337858E-1,-8.084615E-2,-1.347853E-1,-1.22135736E-1,-1.7216949E-1,-1.6160734E-2,5.723243E-2,5.7912003E-2,-2.9342417E-2],"categories":[],"categories_nodes":[],"categories_segments":[],"categories_sizes":[],"default_left":[0,0,0,0,0,0,0,0,0,0,0,0,0,0,0,0,0,0,0,0,0,0,0],"id":4,"left_children":[1,3,5,7,9,-1,-1,11,-1,13,-1,15,17,19,21,-1,-1,-1,-1,-1,-1,-1,-1],"loss_changes":[6.1305728E3,1.8462231E2,3.8265815E3,1.3531738E1,2.3298923E1,0E0,0E0,1.5408356E1,0E0,1.36846695E1,0E0,1.1662201E1,9.69162E-1,7.3840265E0,8.316118E0,0E0,0E0,0E0,0E0,0E0,0E0,0E0,0E0],"parents":[2147483647,0,0,1,1,2,2,3,3,4,4,7,7,9,9,11,11,12,12,13,13,14,14],"right_children":[2,4,6,8,10,-1,-1,12,-1,14,-1,16,18,20,22,-1,-1,-1,-1,-1,-1,-1,-1],"split_conditions":[1E0,1E0,1.0078637E4,1E0,1E0,5.120967E-2,2.3878906E0,1E0,-1.6184948E-1,5.34153E-1,-6.919815E-2,1E0,1E0,1E0,1E0,-8.084615E-2,-1.347853E-1,-1.22135736E-1,-1.7216949E-1,-1.6160734E-2,5.723243E-2,5.7912003E-2,-2.9342417E-2],"split_indices":[27,44,4,41,41,0,0,37,0,5,0,36,19,39,40,0,0,0,0,0,0,0,0],"split_type":[0,0,0,0,0,0,0,0,0,0,0,0,0,0,0,0,0,0,0,0,0,0,0],"sum_hessian":[6.52E2,6.24E2,2.8E1,3.87E2,2.37E2,1.2E1,1.6E1,3.45E2,4.2E1,2.02E2,3.5E1,2.95E2,5E1,1.1E2,9.2E1,2.44E2,5.1E1,2.3E1,2.7E1,9.5E1,1.5E1,8E1,1.2E1],"tree_param":{"num_deleted":"0","num_feature":"47","num_nodes":"23","size_leaf_vector":"1"}},{"base_weights":[1.5315781E-2,-5.8204263E-1,1.2888892E1,-9.649997E-1,4.471941E-2,4.6482734E-2,2.1631477E0,-9.0064245E-1,-1.4604088E0,1.6321477E-1,-6.2470503E-2,-8.1608146E-1,-1.3737682E0,-1.2313037E-1,-1.6849992E-1,-2.1582386E-1,3.1267387E-1,-7.279428E-2,-1.21565655E-1,-1.10430755E-1,-1.5556715E-1,-5.6804377E-3,-5.660447E-2,4.4686552E-2,-2.9531408E-2],"categories":[],"categories_nodes":[],"categories_segments":[],"categories_sizes":[],"default_left":[0,0,0,0,0,0,0,0,0,0,0,0,0,0,0,0,0,0,0,0,0,0,0,0,0],"id":5,"left_children":[1,3,5,7,9,-1,-1,11,13,15,-1,17,19,-1,-1,21,23,-1,-1,-1,-1,-1,-1,-1,-1],"loss_changes":[5.0291626E3,1.500575E2,3.1398794E3,1.1055359E1,1.8981E1,0E0,0E0,1.272168E1,1.3781738E-1,1.1567589E1,0E0,9.539612E0,7.8186035E-1,0E0,0E0,3.1979783E0,1.2043655E1,0E0,0E0,0E0,0E0,0E0,0E0,0E0,0E0],"parents":[2147483647,0,0,1,1,2,2,3,3,4,4,7,7,8,8,9,9,11,11,12,12,15,15,16,16],"right_children":[2,4,6,8,10,-1,-1,12,14,16,-1,18,20,-1,-1,22,24,-1,-1,-1,-1,-1,-1,-1,-1],"split_conditions":[1E0,1E0,1.0078637E4,1E0,1E0,4.6482734E-2,2.1631477E0,1E0,1E0,3.0405405E-1,-6.2470503E-2,1E0,1E0,-1.2313037E-1,-1.6849992E-1,1E0,1E0,-7.279428E-2,-1.21565655E-1,-1.10430755E-1,-1.5556715E-1,-5.6804377E-3,-5.660447E-2,4.4686552E-2,-2.9531408E-2],"split_indices":[27,44,4,41,41,0,0,37,23,5,0,36,19,0,0,37,40,0,0,0,0,0,0,0,0],"split_type":[0,0,0,0,0,0,0,0,0,0,0,0,0,0,0,0,0,0,0,0,0,0,0,0,0],"sum_hessian":[6.52E2,6.24E2,2.8E1,3.87E2,2.37E2,1.2E1,1.6E1,3.45E2,4.2E1,2.02E2,3.5E1,2.95E2,5E1,2.4E1,1.8E1,5.7E1,1.45E2,2.44E2,5.1E1,2.3E1,2.7E1,4E1,1.7E1,1.19E2,2.6E1],"tree_param":{"num_deleted":"0","num_feature":"47","num_nodes":"25","size_leaf_vector":"1"}},{"base_weights":[1.584804E-2,-5.252175E-1,1.1676196E1,-8.7043935E-1,3.9788064E-2,4.2191725E-2,1.9595574E0,-9.199903E-1,-3.2746798E-1,1.466626E-1,-5.639708E-2,-9.5581806E-1,-1.0115147E-2,-4.2238712E-2,-2.3030091E-2,-6.442216E-3,4.5753866E-1,-9.9180266E-2,-3.9059516E-2,-9.059925E-3,6.84075E-2,5.220549E-2,-4.468735E-2],"categories":[],"categories_nodes":[],"categories_segments":[],"categories_sizes":[],"default_left":[0,0,0,0,0,0,0,0,0,0,0,0,0,0,0,0,0,0,0,0,0,0,0],"id":6,"left_children":[1,3,5,7,9,-1,-1,11,13,15,-1,17,-1,-1,-1,19,21,-1,-1,-1,-1,-1,-1],"loss_changes":[4.125917E3,1.2194229E2,2.5764116E3,1.0137787E1,1.5440006E1,0E0,0E0,1.0317993E1,2.1630645E-1,9.665062E0,0E0,6.527954E0,0E0,0E0,0E0,8.023303E0,4.1426916E0,0E0,0E0,0E0,0E0,0E0,0E0],"parents":[2147483647,0,0,1,1,2,2,3,3,4,4,7,7,8,8,9,9,11,11,15,15,16,16],"right_children":[2,4,6,8,10,-1,-1,12,14,16,-1,18,-1,-1,-1,20,22,-1,-1,-1,-1,-1,-1],"split_conditions":[1E0,1E0,1.0078637E4,1E0,1E0,4.2191725E-2,1.9595574E0,1E0,1E0,1.0200312E4,-5.639708E-2,1E0,-1.0115147E-2,-4.2238712E-2,-2.3030091E-2,1E0,1E0,-9.9180266E-2,-3.9059516E-2,-9.059925E-3,6.84075E-2,5.220549E-2,-4.468735E-2],"split_indices":[27,44,4,34,41,0,0,21,15,4,0,12,0,0,0,20,37,0,0,0,0,0,0],"split_type":[0,0,0,0,0,0,0,0,0,0,0,0,0,0,0,0,0,0,0,0,0,0,0],"sum_hessian":[6.52E2,6.24E2,2.8E1,3.87E2,2.37E2,1.2E1,1.6E1,3.54E2,3.3E1,2.02E2,3.5E1,3.39E2,1.5E1,1.5E1,1.8E1,1.36E2,6.6E1,3.18E2,2.1E1,1.22E2,1.4E1,6.2E1,4E0],"tree_param":{"num_deleted":"0","num_feature":"47","num_nodes":"23","size_leaf_vector":"1"}},{"base_weights":[1.701918E-2,-4.7301915E-1,1.0577603E1,-7.839442E-1,3.5854563E-2,3.8297214E-2,1.7751286E0,-7.2695553E-1,-1.224273E0,1.7884937E-1,-3.395084E-1,-6.5257967E-1,-1.1443729E0,-1.01788335E-1,-1.431403E-1,1.1741109E-1,8.682262E-2,-3.9362285E-1,2.672399E-2,-5.7635773E-2,-9.991529E-2,-9.0343125E-2,-1.3100241E-1,4.323473E-3,8.315669E-2,-4.426584E-2,2.4410706E-2],"categories":[],"categories_nodes":[],"categories_segments":[],"categories_sizes":[],"default_left":[0,0,0,0,0,0,0,0,0,0,0,0,0,0,0,0,0,0,0,0,0,0,0,0,0,0,0],"id":7,"left_children":[1,3,5,7,9,-1,-1,11,13,15,17,19,21,-1,-1,23,-1,25,-1,-1,-1,-1,-1,-1,-1,-1,-1],"loss_changes":[3.3843376E3,9.8916595E1,2.1140603E3,8.84639E0,1.2835361E1,0E0,0E0,9.995041E0,3.812256E-1,7.2253246E0,2.2722259E0,7.243416E0,8.519974E-1,0E0,0E0,8.439804E0,0E0,2.0156136E0,0E0,0E0,0E0,0E0,0E0,0E0,0E0,0E0,0E0],"parents":[2147483647,0,0,1,1,2,2,3,3,4,4,7,7,8,8,9,9,10,10,11,11,12,12,15,15,17,17],"right_children":[2,4,6,8,10,-1,-1,12,14,16,18,20,22,-1,-1,24,-1,26,-1,-1,-1,-1,-1,-1,-1,-1,-1],"split_conditions":[1E0,1E0,1.0078637E4,1E0,1.6360037E0,3.8297214E-2,1.7751286E0,1E0,1E0,1E0,1E0,1E0,1E0,-1.01788335E-1,-1.431403E-1,1E0,8.682262E-2,1E0,2.672399E-2,-5.7635773E-2,-9.991529E-2,-9.0343125E-2,-1.3100241E-1,4.323473E-3,8.315669E-2,-4.426584E-2,2.4410706E-2],"split_indices":[27,44,4,41,3,0,0,37,23,16,31,36,19,0,0,15,0,21,0,0,0,0,0,0,0,0,0],"split_type":[0,0,0,0,0,0,0,0,0,0,0,0,0,0,0,0,0,0,0,0,0,0,0,0,0,0,0],"sum_hessian":[6.52E2,6.24E2,2.8E1,3.87E2,2.37E2,1.2E1,1.6E1,3.45E2,4.2E1,1.72E2,6.5E1,2.95E2,5E1,2.4E1,1.8E1,1.59E2,1.3E1,6E1,5E0,2.44E2,5.1E1,2.3E1,2.7E1,1.45E2,1.4E1,5.6E1,4E0],"tree_param":{"num_deleted":"0","num_feature":"47","num_nodes":"27","size_leaf_vector":"1"}},{"base_weights":[1.741453E-2,-4.2642736E-1,9.582373E0,-7.071595E-1,3.3028547E-2,3.4761872E-2,1.6080574E0,-7.498422E-1,-2.4070291E-1,1.2210019E-1,-4.7015402E-2,-7.8115237E-1,-3.7636757E-3,-3.2876015E-2,-1.5388088E-2,-1.2082295E-1,2.810813E-1,-8.215951E-2,-3.1910863E-2,-2.456324E-2,4.9402457E-2,3.712578E-2,-2.3205647E-2],"categories":[],"categories_nodes":[],"categories_segments":[],"categories_sizes":[],"default_left":[0,0,0,0,0,0,0,0,0,0,0,0,0,0,0,0,0,0,0,0,0,0,0],"id":8,"left_children":[1,3,5,7,9,-1,-1,11,13,15,-1,17,-1,-1,-1,19,21,-1,-1,-1,-1,-1,-1],"loss_changes":[2.776286E3,8.0638405E1,1.7346794E3,7.5444336E0,1.07244E1,0E0,0E0,7.8868256E0,2.0935047E-1,7.8738594E0,0E0,6.0911865E0,0E0,0E0,0E0,6.3371887E0,5.777729E0,0E0,0E0,0E0,0E0,0E0,0E0],"parents":[2147483647,0,0,1,1,2,2,3,3,4,4,7,7,8,8,9,9,11,11,15,15,16,16],"right_children":[2,4,6,8,10,-1,-1,12,14,16,-1,18,-1,-1,-1,20,22,-1,-1,-1,-1,-1,-1],"split_conditions":[1E0,1E0,1.0078637E4,1E0,1E0,3.4761872E-2,1.6080574E0,1E0,1E0,4.897681E-1,-4.7015402E-2,1E0,-3.7636757E-3,-3.2876015E-2,-1.5388088E-2,1E0,1E0,-8.215951E-2,-3.1910863E-2,-2.456324E-2,4.9402457E-2,3.712578E-2,-2.3205647E-2],"split_indices":[27,44,4,34,41,0,0,21,15,5,0,33,0,0,0,39,40,0,0,0,0,0,0],"split_type":[0,0,0,0,0,0,0,0,0,0,0,0,0,0,0,0,0,0,0,0,0,0,0],"sum_hessian":[6.52E2,6.24E2,2.8E1,3.87E2,2.37E2,1.2E1,1.6E1,3.54E2,3.3E1,2.02E2,3.5E1,3.39E2,1.5E1,1.5E1,1.8E1,8E1,1.22E2,3.11E2,2.8E1,6.7E1,1.3E1,1.04E2,1.8E1],"tree_param":{"num_deleted":"0","num_feature":"47","num_nodes":"23","size_leaf_vector":"1"}},{"base_weights":[1.7923212E-2,-3.840623E-1,8.680786E0,-6.368704E-1,2.9692354E-2,3.15533E-2,1.456711E0,-5.865095E-1,-1.0272888E0,1.10083215E-1,-4.244476E-2,-5.392072E-1,-1.1044718E-1,-8.412891E-2,-1.21795736E-1,-1.9284561E-1,2.1568021E-1,-4.95958E-2,-9.2500746E-2,-5.0813463E-3,-4.6619628E-2,3.0772347E-2,-2.184341E-2],"categories":[],"categories_nodes":[],"categories_segments":[],"categories_sizes":[],"default_left":[0,0,0,0,0,0,0,0,0,0,0,0,0,0,0,0,0,0,0,0,0,0,0],"id":9,"left_children":[1,3,5,7,9,-1,-1,11,13,15,-1,17,-1,-1,-1,19,21,-1,-1,-1,-1,-1,-1],"loss_changes":[2.2773057E3,6.539425E1,1.4233806E3,7.0262604E0,8.735796E0,0E0,0E0,7.881752E0,5.003128E-1,6.5352325E0,0E0,4.863922E0,0E0,0E0,0E0,2.0340137E0,6.1007676E0,0E0,0E0,0E0,0E0,0E0,0E0],"parents":[2147483647,0,0,1,1,2,2,3,3,4,4,7,7,8,8,9,9,11,11,15,15,16,16],"right_children":[2,4,6,8,10,-1,-1,12,14,16,-1,18,-1,-1,-1,20,22,-1,-1,-1,-1,-1,-1],"split_conditions":[1E0,1E0,1.0078637E4,1E0,1E0,3.15533E-2,1.456711E0,1E0,1E0,1.872214E-1,-4.244476E-2,1E0,-1.1044718E-1,-8.412891E-2,-1.21795736E-1,1E0,1E0,-4.95958E-2,-9.2500746E-2,-5.0813463E-3,-4.6619628E-2,3.0772347E-2,-2.184341E-2],"split_indices":[27,44,4,41,41,0,0,19,23,5,0,25,0,0,0,37,40,0,0,0,0,0,0],"split_type":[0,0,0,0,0,0,0,0,0,0,0,0,0,0,0,0,0,0,0,0,0,0,0],"sum_hessian":[6.52E2,6.24E2,2.8E1,3.87E2,2.37E2,1.2E1,1.6E1,3.45E2,4.2E1,2.02E2,3.5E1,3.18E2,2.7E1,2.4E1,1.8E1,5.2E1,1.5E2,2.88E2,3E1,3.5E1,1.7E1,1.24E2,2.6E1],"tree_param":{"num_deleted":"0","num_feature":"47","num_nodes":"23","size_leaf_vector":"1"}},{"base_weights":[1.7579235E-2,-3.4652403E-1,7.864026E0,-5.7436275E-1,2.636645E-2,2.8640512E-2,1.3196088E0,-5.28586E-1,-9.293486E-1,-1.7193943E-2,7.2456084E-2,-4.674785E-1,-8.728844E-1,-7.6052494E-2,-1.102572E-1,-6.7428336E-2,6.9058284E-2,-4.009513E-2,-7.7193394E-2,-6.905861E-2,-9.979657E-2,-1.1431347E-2,5.5282492E-2],"categories":[],"categories_nodes":[],"categories_segments":[],"categories_sizes":[],"default_left":[0,0,0,0,0,0,0,0,0,0,0,0,0,0,0,0,0,0,0,0,0,0,0],"id":10,"left_children":[1,3,5,7,9,-1,-1,11,13,15,-1,17,19,-1,-1,21,-1,-1,-1,-1,-1,-1,-1],"loss_changes":[1.8682919E3,5.311444E1,1.1679465E3,5.813797E0,7.2509003E0,0E0,0E0,6.871521E0,4.189644E-1,8.04638E0,0E0,5.685837E0,4.7372818E-1,0E0,0E0,6.199213E0,0E0,0E0,0E0,0E0,0E0,0E0,0E0],"parents":[2147483647,0,0,1,1,2,2,3,3,4,4,7,7,8,8,9,9,11,11,12,12,15,15],"right_children":[2,4,6,8,10,-1,-1,12,14,16,-1,18,20,-1,-1,22,-1,-1,-1,-1,-1,-1,-1],"split_conditions":[1E0,1E0,1.0078637E4,1E0,1E0,2.8640512E-2,1.3196088E0,1E0,1E0,1E0,7.2456084E-2,1E0,1E0,-7.6052494E-2,-1.102572E-1,1E0,6.9058284E-2,-4.009513E-2,-7.7193394E-2,-6.905861E-2,-9.979657E-2,-1.1431347E-2,5.5282492E-2],"split_indices":[27,44,4,41,16,0,0,37,23,15,0,36,19,0,0,20,0,0,0,0,0,0,0],"split_type":[0,0,0,0,0,0,0,0,0,0,0,0,0,0,0,0,0,0,0,0,0,0,0],"sum_hessian":[6.52E2,6.24E2,2.8E1,3.87E2,2.37E2,1.2E1,1.6E1,3.45E2,4.2E1,2.24E2,1.3E1,2.95E2,5E1,2.4E1,1.8E1,2.1E2,1.4E1,2.44E2,5.1E1,2.3E1,2.7E1,1.96E2,1.4E1],"tree_param":{"num_deleted":"0","num_feature":"47","num_nodes":"23","size_leaf_vector":"1"}},{"base_weights":[1.744478E-2,-3.1233257E-1,7.124114E0,-5.297177E-1,7.2721345E-3,2.599675E-2,1.1954101E0,-5.5251753E-1,4.975281E-3,1.1165384E-1,-2.3866995E-1,-5.89998E-1,-1.3812649E-1,6.496457E-2,6.5728E-2,-2.7220282E-1,1.9791413E-2,-6.2212236E-2,-2.0883009E-2,-2.1385431E-2,-5.3765774E-3,1.0046235E-3,5.457167E-2,-3.086519E-2,1.7410405E-2],"categories":[],"categories_nodes":[],"categories_segments":[],"categories_sizes":[],"default_left":[0,0,0,0,0,0,0,0,0,0,0,0,0,0,0,0,0,0,0,0,0,0,0,0,0],"id":11,"left_children":[1,3,5,7,9,-1,-1,11,-1,13,15,17,19,21,-1,23,-1,-1,-1,-1,-1,-1,-1,-1,-1],"loss_changes":[1.532608E3,4.3427174E1,9.5835095E2,4.9422913E0,6.5472994E0,0E0,0E0,5.478813E0,0E0,4.5173054E0,1.1665068E0,3.8863602E0,1.8654406E-1,4.377267E0,0E0,1.2087283E0,0E0,0E0,0E0,0E0,0E0,0E0,0E0,0E0,0E0],"parents":[2147483647,0,0,1,1,2,2,3,3,4,4,7,7,9,9,10,10,11,11,12,12,13,13,15,15],"right_children":[2,4,6,8,10,-1,-1,12,-1,14,16,18,20,22,-1,24,-1,-1,-1,-1,-1,-1,-1,-1,-1],"split_conditions":[1E0,1.6346154E-1,1.0078637E4,1E0,1.6360037E0,2.599675E-2,1.1954101E0,1E0,4.975281E-3,1E0,1E0,1E0,1E0,1E0,6.5728E-2,1E0,1.9791413E-2,-6.2212236E-2,-2.0883009E-2,-2.1385431E-2,-5.3765774E-3,1.0046235E-3,5.457167E-2,-3.086519E-2,1.7410405E-2],"split_indices":[27,6,4,21,3,0,0,34,0,16,31,33,15,15,0,21,0,0,0,0,0,0,0,0,0],"split_type":[0,0,0,0,0,0,0,0,0,0,0,0,0,0,0,0,0,0,0,0,0,0,0,0,0],"sum_hessian":[6.52E2,6.24E2,2.8E1,3.71E2,2.53E2,1.2E1,1.6E1,3.57E2,1.4E1,1.78E2,7.5E1,3.27E2,3E1,1.65E2,1.3E1,7E1,5E0,3.01E2,2.6E1,1.5E1,1.5E1,1.49E2,1.6E1,6.5E1,5E0],"tree_param":{"num_deleted":"0","num_feature":"47","num_nodes":"25","size_leaf_vector":"1"}},{"base_weights":[1.7604413E-2,-2.8106418E-1,6.4538207E0,-4.674134E-1,2.3912927E-2,2.3597365E-2,1.0829009E0,-4.2721707E-1,-7.799835E-1,8.916812E-2,-3.447181E-1,-3.737528E-1,-7.291426E-1,-6.277954E-2,-9.391793E-2,1.3653438E-1,-4.05237E-2,-3.8821552E-2,-2.5794068E-2,-3.2983616E-2,-7.3852934E-2,-5.6739617E-2,-8.4174156E-2,3.2623105E-3,3.2946732E-2],"categories":[],"categories_nodes":[],"categories_segments":[],"categories_sizes":[],"default_left":[0,0,0,0,0,0,0,0,0,0,0,0,0,0,0,0,0,0,0,0,0,0,0,0,0],"id":12,"left_children":[1,3,5,7,9,-1,-1,11,13,15,17,19,21,-1,-1,23,-1,-1,-1,-1,-1,-1,-1,-1,-1],"loss_changes":[1.257073E3,3.5531322E1,7.863678E2,4.5416718E0,5.755849E0,0E0,0E0,5.3126945E0,4.5218086E-1,4.809207E0,3.574896E-2,4.4982567E0,4.5123482E-1,0E0,0E0,3.718162E0,0E0,0E0,0E0,0E0,0E0,0E0,0E0,0E0,0E0],"parents":[2147483647,0,0,1,1,2,2,3,3,4,4,7,7,8,8,9,9,10,10,11,11,12,12,15,15],"right_children":[2,4,6,8,10,-1,-1,12,14,16,18,20,22,-1,-1,24,-1,-1,-1,-1,-1,-1,-1,-1,-1],"split_conditions":[1E0,1E0,1.0078637E4,1E0,1E0,2.3597365E-2,1.0829009E0,1E0,1E0,1E0,1E0,1E0,1E0,-6.277954E-2,-9.391793E-2,1.0190086E4,-4.05237E-2,-3.8821552E-2,-2.5794068E-2,-3.2983616E-2,-7.3852934E-2,-5.6739617E-2,-8.4174156E-2,3.2623105E-3,3.2946732E-2],"split_indices":[27,44,4,41,41,0,0,37,23,37,23,25,19,0,0,4,0,0,0,0,0,0,0,0,0],"split_type":[0,0,0,0,0,0,0,0,0,0,0,0,0,0,0,0,0,0,0,0,0,0,0,0,0],"sum_hessian":[6.52E2,6.24E2,2.8E1,3.87E2,2.37E2,1.2E1,1.6E1,3.45E2,4.2E1,2.02E2,3.5E1,2.95E2,5E1,2.4E1,1.8E1,1.85E2,1.7E1,2.1E1,1.4E1,2.65E2,3E1,2.3E1,2.7E1,1.21E2,6.4E1],"tree_param":{"num_deleted":"0","num_feature":"47","num_nodes":"25","size_leaf_vector":"1"}},{"base_weights":[1.6812673E-2,-2.5371605E-1,5.8465934E0,-4.3861687E-1,-2.520511E-3,2.1419114E-2,9.809807E-1,-4.5965454E-1,7.589315E-3,-3.3951197E-2,5.65657E-2,-4.9264497E-1,-9.5733896E-2,-7.070471E-2,4.2241868E-1,-5.1707115E-2,-1.0406341E-2,-1.6288519E-2,-1.7723592E-3,-1.1062436E-2,3.889409E-2,-3.4074404E-3,5.464218E-2],"categories":[],"categories_nodes":[],"categories_segments":[],"categories_sizes":[],"default_left":[0,0,0,0,0,0,0,0,0,0,0,0,0,0,0,0,0,0,0,0,0,0,0],"id":13,"left_children":[1,3,5,7,9,-1,-1,11,-1,13,-1,15,17,19,21,-1,-1,-1,-1,-1,-1,-1,-1],"loss_changes":[1.0313447E3,2.9027805E1,6.4524896E2,3.9315567E0,4.769488E0,0E0,0E0,4.10688E0,0E0,4.273486E0,0E0,2.9550095E0,1.5426788E-1,4.355015E0,1.0941441E0,0E0,0E0,0E0,0E0,0E0,0E0,0E0,0E0],"parents":[2147483647,0,0,1,1,2,2,3,3,4,4,7,7,9,9,11,11,12,12,13,13,14,14],"right_children":[2,4,6,8,10,-1,-1,12,-1,14,-1,16,18,20,22,-1,-1,-1,-1,-1,-1,-1,-1],"split_conditions":[1E0,1.5862069E-1,1.0078637E4,1E0,1E0,2.1419114E-2,9.809807E-1,1E0,7.589315E-3,1E0,5.65657E-2,1E0,1E0,1E0,9.2568E1,-5.1707115E-2,-1.0406341E-2,-1.6288519E-2,-1.7723592E-3,-1.1062436E-2,3.889409E-2,-3.4074404E-3,5.464218E-2],"split_indices":[27,6,4,21,16,0,0,34,0,15,0,38,15,20,0,0,0,0,0,0,0,0,0],"split_type":[0,0,0,0,0,0,0,0,0,0,0,0,0,0,0,0,0,0,0,0,0,0,0],"sum_hessian":[6.52E2,6.24E2,2.8E1,3.59E2,2.65E2,1.2E1,1.6E1,3.45E2,1.4E1,2.52E2,1.3E1,3.16E2,2.9E1,2.34E2,1.8E1,2.97E2,1.9E1,1.5E1,1.4E1,2.16E2,1.8E1,4E0,1.4E1],"tree_param":{"num_deleted":"0","num_feature":"47","num_nodes":"23","size_leaf_vector":"1"}},{"base_weights":[1.6761897E-2,-2.2824484E-1,5.2965016E0,-3.811086E-1,2.192066E-2,1.944228E-2,8.886532E-1,-3.45953E-1,-6.551258E-1,7.913035E-2,-3.0128732E-1,-2.993079E-1,-6.09894E-1,-5.1788818E-2,-8.0122136E-2,1.2086397E-1,-3.5651315E-2,-3.4060184E-2,-2.2354025E-2,-2.444212E-2,-5.5215277E-2,-4.668573E-2,-7.107149E-2,1.6197665E-2,-2.7185312E-2],"categories":[],"categories_nodes":[],"categories_segments":[],"categories_sizes":[],"default_left":[0,0,0,0,0,0,0,0,0,0,0,0,0,0,0,0,0,0,0,0,0,0,0,0,0],"id":14,"left_children":[1,3,5,7,9,-1,-1,11,13,15,17,19,21,-1,-1,23,-1,-1,-1,-1,-1,-1,-1,-1,-1],"loss_changes":[8.4591125E2,2.390913E1,5.294542E2,3.511055E0,4.4246106E0,0E0,0E0,4.0772514E0,4.4719696E-1,3.733828E0,3.389907E-2,3.9728756E0,4.0367317E-1,0E0,0E0,3.0471253E0,0E0,0E0,0E0,0E0,0E0,0E0,0E0,0E0,0E0],"parents":[2147483647,0,0,1,1,2,2,3,3,4,4,7,7,8,8,9,9,10,10,11,11,12,12,15,15],"right_children":[2,4,6,8,10,-1,-1,12,14,16,18,20,22,-1,-1,24,-1,-1,-1,-1,-1,-1,-1,-1,-1],"split_conditions":[1E0,1E0,1.0078637E4,1E0,1E0,1.944228E-2,8.886532E-1,1E0,1E0,1E0,1E0,1E0,1E0,-5.1788818E-2,-8.0122136E-2,1E0,-3.5651315E-2,-3.4060184E-2,-2.2354025E-2,-2.444212E-2,-5.5215277E-2,-4.668573E-2,-7.107149E-2,1.6197665E-2,-2.7185312E-2],"split_indices":[27,44,4,41,41,0,0,37,23,37,23,36,19,0,0,13,0,0,0,0,0,0,0,0,0],"split_type":[0,0,0,0,0,0,0,0,0,0,0,0,0,0,0,0,0,0,0,0,0,0,0,0,0],"sum_hessian":[6.52E2,6.24E2,2.8E1,3.87E2,2.37E2,1.2E1,1.6E1,3.45E2,4.2E1,2.02E2,3.5E1,2.95E2,5E1,2.4E1,1.8E1,1.85E2,1.7E1,2.1E1,1.4E1,2.44E2,5.1E1,2.3E1,2.7E1,1.68E2,1.7E1],"tree_param":{"num_deleted":"0","num_feature":"47","num_nodes":"25","size_leaf_vector":"1"}},{"base_weights":[1.5814835E-2,-2.0611148E-1,4.798164E0,-3.4384546E-1,1.9295637E-2,1.7647846E-2,8.050149E-1,-3.6163744E-1,9.242058E-3,7.098787E-2,-2.7272713E-1,-3.9099354E-1,-5.744014E-2,1.08718745E-1,-3.2284167E-2,-3.080923E-2,-2.026764E-2,-4.171447E-2,5.9713883E-4,-1.24697685E-2,2.2209568E-4,1.5714936E-2,-1.823041E-2],"categories":[],"categories_nodes":[],"categories_segments":[],"categories_sizes":[],"default_left":[0,0,0,0,0,0,0,0,0,0,0,0,0,0,0,0,0,0,0,0,0,0,0],"id":15,"left_children":[1,3,5,7,9,-1,-1,11,-1,13,15,17,19,21,-1,-1,-1,-1,-1,-1,-1,-1,-1],"loss_changes":[6.9403687E2,1.9410522E1,4.3443927E2,3.0450897E0,3.6120439E0,0E0,0E0,3.3084526E0,0E0,3.0515838E0,2.6741982E-2,3.5320702E0,1.3670734E-1,2.6502106E0,0E0,0E0,0E0,0E0,0E0,0E0,0E0,0E0,0E0],"parents":[2147483647,0,0,1,1,2,2,3,3,4,4,7,7,9,9,10,10,11,11,12,12,13,13],"right_children":[2,4,6,8,10,-1,-1,12,-1,14,16,18,20,22,-1,-1,-1,-1,-1,-1,-1,-1,-1],"split_conditions":[1E0,1E0,1.0078637E4,1E0,1E0,1.7647846E-2,8.050149E-1,1E0,9.242058E-3,1E0,1E0,1E0,1E0,1E0,-3.2284167E-2,-3.080923E-2,-2.026764E-2,-4.171447E-2,5.9713883E-4,-1.24697685E-2,2.2209568E-4,1.5714936E-2,-1.823041E-2],"split_indices":[27,44,4,21,41,0,0,34,0,37,23,12,15,40,0,0,0,0,0,0,0,0,0],"split_type":[0,0,0,0,0,0,0,0,0,0,0,0,0,0,0,0,0,0,0,0,0,0,0],"sum_hessian":[6.52E2,6.24E2,2.8E1,3.87E2,2.37E2,1.2E1,1.6E1,3.72E2,1.5E1,2.02E2,3.5E1,3.39E2,3.3E1,1.85E2,1.7E1,2.1E1,1.4E1,3.18E2,2.1E1,1.5E1,1.8E1,1.59E2,2.6E1],"tree_param":{"num_deleted":"0","num_feature":"47","num_nodes":"23","size_leaf_vector":"1"}},{"base_weights":[1.529523E-2,-1.8570714E-1,4.3467155E0,-3.218527E-1,-7.5181085E-4,1.6018912E-2,7.2924876E-1,-3.0069277E-1,-6.8579264E-2,-2.754531E-2,4.8349872E-2,-2.7295908E-1,-6.0195763E-2,-5.912203E-2,3.644586E-1,-2.451752E-2,-5.489878E-2,-9.4015235E-3,3.425068E-2,-1.1967468E-3,4.656367E-2],"categories":[],"categories_nodes":[],"categories_segments":[],"categories_sizes":[],"default_left":[0,0,0,0,0,0,0,0,0,0,0,0,0,0,0,0,0,0,0,0,0],"id":16,"left_children":[1,3,5,7,9,-1,-1,11,-1,13,-1,15,-1,17,19,-1,-1,-1,-1,-1,-1],"loss_changes":[5.693258E2,1.5737787E1,3.5647583E2,2.5661354E0,3.4646058E0,0E0,0E0,2.693161E0,0E0,3.1532314E0,0E0,2.2811852E0,0E0,3.3255188E0,7.29208E-1,0E0,0E0,0E0,0E0,0E0,0E0],"parents":[2147483647,0,0,1,1,2,2,3,3,4,4,7,7,9,9,11,11,13,13,14,14],"right_children":[2,4,6,8,10,-1,-1,12,-1,14,-1,16,-1,18,20,-1,-1,-1,-1,-1,-1],"split_conditions":[1E0,1.5862069E-1,1.0078637E4,1E0,1E0,1.6018912E-2,7.2924876E-1,1E0,-6.8579264E-2,1E0,4.8349872E-2,1E0,-6.0195763E-2,1E0,9.2568E1,-2.451752E-2,-5.489878E-2,-9.4015235E-3,3.425068E-2,-1.1967468E-3,4.656367E-2],"split_indices":[27,6,4,23,16,0,0,19,0,15,0,25,0,20,0,0,0,0,0,0,0],"split_type":[0,0,0,0,0,0,0,0,0,0,0,0,0,0,0,0,0,0,0,0,0],"sum_hessian":[6.52E2,6.24E2,2.8E1,3.59E2,2.65E2,1.2E1,1.6E1,3.41E2,1.8E1,2.52E2,1.3E1,3.14E2,2.7E1,2.34E2,1.8E1,2.87E2,2.7E1,2.16E2,1.8E1,4E0,1.4E1],"tree_param":{"num_deleted":"0","num_feature":"47","num_nodes":"21","size_leaf_vector":"1"}},{"base_weights":[1.4770788E-2,-1.672787E-1,3.937742E0,-2.801384E-1,1.7413901E-2,1.4539982E-2,6.6061366E-1,-2.5081944E-1,-5.095389E-1,-2.0297808E-3,6.593453E-2,-2.1255545E-1,-4.679827E-1,-4.0458255E-2,-6.208215E-2,-1.5646017E-1,1.0813034E-1,-1.6489198E-2,-4.3303605E-2,-3.5989985E-2,-5.4391153E-2,-2.0172637E-2,1.2631281E-2,1.4390406E-2,-2.7352333E-2],"categories":[],"categories_nodes":[],"categories_segments":[],"categories_sizes":[],"default_left":[0,0,0,0,0,0,0,0,0,0,0,0,0,0,0,0,0,0,0,0,0,0,0,0,0],"id":17,"left_children":[1,3,5,7,9,-1,-1,11,13,15,-1,17,19,-1,-1,21,23,-1,-1,-1,-1,-1,-1,-1,-1],"loss_changes":[4.6701495E2,1.30325985E1,2.92504E2,2.481802E0,2.9719377E0,0E0,0E0,2.7756271E0,2.5105953E-1,3.9637182E0,0E0,3.0392208E0,2.2278309E-1,0E0,0E0,1.2670865E0,1.8961922E0,0E0,0E0,0E0,0E0,0E0,0E0,0E0,0E0],"parents":[2147483647,0,0,1,1,2,2,3,3,4,4,7,7,8,8,9,9,11,11,12,12,15,15,16,16],"right_children":[2,4,6,8,10,-1,-1,12,14,16,-1,18,20,-1,-1,22,24,-1,-1,-1,-1,-1,-1,-1,-1],"split_conditions":[1E0,1E0,1.0078637E4,1E0,1E0,1.4539982E-2,6.6061366E-1,1E0,1E0,4.9594596E-1,6.593453E-2,1E0,1E0,-4.0458255E-2,-6.208215E-2,1E0,1E0,-1.6489198E-2,-4.3303605E-2,-3.5989985E-2,-5.4391153E-2,-2.0172637E-2,1.2631281E-2,1.4390406E-2,-2.7352333E-2],"split_indices":[27,44,4,41,24,0,0,37,23,5,0,36,19,0,0,28,22,0,0,0,0,0,0,0,0],"split_type":[0,0,0,0,0,0,0,0,0,0,0,0,0,0,0,0,0,0,0,0,0,0,0,0,0],"sum_hessian":[6.52E2,6.24E2,2.8E1,3.87E2,2.37E2,1.2E1,1.6E1,3.45E2,4.2E1,2.31E2,6E0,2.95E2,5E1,2.4E1,1.8E1,9.6E1,1.35E2,2.44E2,5.1E1,2.3E1,2.7E1,8.3E1,1.3E1,1.24E2,1.1E1],"tree_param":{"num_deleted":"0","num_feature":"47","num_nodes":"25","size_leaf_vector":"1"}},{"base_weights":[1.4009426E-2,-1.5088326E-1,3.567248E0,-2.5277737E-1,1.5863756E-2,1.3197678E-2,5.984382E-1,-2.681441E-1,1.2125874E-2,5.949402E-2,-2.3060311E-1,-2.9266992E-1,-1.499939E-2,3.988562E-2,6.028312E-2,-2.5988353E-2,-1.7228495E-2,-3.1842437E-2,-5.495795E-4,-7.456541E-3,3.5950912E-3,-1.1596802E-2,1.3459406E-2],"categories":[],"categories_nodes":[],"categories_segments":[],"categories_sizes":[],"default_left":[0,0,0,0,0,0,0,0,0,0,0,0,0,0,0,0,0,0,0,0,0,0,0],"id":18,"left_children":[1,3,5,7,9,-1,-1,11,-1,13,15,17,19,21,-1,-1,-1,-1,-1,-1,-1,-1,-1],"loss_changes":[3.8313297E2,1.0623096E1,2.4001202E2,2.2626286E0,2.5730321E0,0E0,0E0,2.311409E0,0E0,2.138712E0,1.6698837E-2,2.5128899E0,1.0586752E-1,2.9234576E0,0E0,0E0,0E0,0E0,0E0,0E0,0E0,0E0,0E0],"parents":[2147483647,0,0,1,1,2,2,3,3,4,4,7,7,9,9,10,10,11,11,12,12,13,13],"right_children":[2,4,6,8,10,-1,-1,12,-1,14,16,18,20,22,-1,-1,-1,-1,-1,-1,-1,-1,-1],"split_conditions":[1E0,1E0,1.0078637E4,1E0,1E0,1.3197678E-2,5.984382E-1,1E0,1.2125874E-2,1E0,1E0,1E0,1E0,4.897681E-1,6.028312E-2,-2.5988353E-2,-1.7228495E-2,-3.1842437E-2,-5.495795E-4,-7.456541E-3,3.5950912E-3,-1.1596802E-2,1.3459406E-2],"split_indices":[27,44,4,21,41,0,0,34,0,24,23,33,15,5,0,0,0,0,0,0,0,0,0],"split_type":[0,0,0,0,0,0,0,0,0,0,0,0,0,0,0,0,0,0,0,0,0,0,0],"sum_hessian":[6.52E2,6.24E2,2.8E1,3.87E2,2.37E2,1.2E1,1.6E1,3.72E2,1.5E1,2.02E2,3.5E1,3.39E2,3.3E1,1.96E2,6E0,2.1E1,1.4E1,3.11E2,2.8E1,1.5E1,1.8E1,7.4E1,1.22E2],"tree_param":{"num_deleted":"0","num_feature":"47","num_nodes":"23","size_leaf_vector":"1"}},{"base_weights":[1.353867E-2,-1.3580178E-1,3.2316158E0,-2.4272102E-1,-4.047516E-3,1.1979323E-2,5.42115E-1,-2.579702E-1,1.099589E-2,-2.5805231E-2,4.1274644E-2,-2.7531445E-1,4.133084E-2,-5.219349E-2,2.8705633E-1,-2.9938882E-2,-1.9579206E-3,1.3603115E-2,-2.524694E-3,-8.103744E-3,2.9971717E-2,1.2195043E-3,3.9618786E-2],"categories":[],"categories_nodes":[],"categories_segments":[],"categories_sizes":[],"default_left":[0,0,0,0,0,0,0,0,0,0,0,0,0,0,0,0,0,0,0,0,0,0,0],"id":19,"left_children":[1,3,5,7,9,-1,-1,11,-1,13,-1,15,17,19,21,-1,-1,-1,-1,-1,-1,-1,-1],"loss_changes":[3.1426352E2,8.803435E0,1.9694037E2,1.8838024E0,2.558895E0,0E0,0E0,1.7296505E0,0E0,2.227556E0,0E0,1.921175E0,1.2322816E-1,2.5416107E0,6.25085E-1,0E0,0E0,0E0,0E0,0E0,0E0,0E0,0E0],"parents":[2147483647,0,0,1,1,2,2,3,3,4,4,7,7,9,9,11,11,12,12,13,13,14,14],"right_children":[2,4,6,8,10,-1,-1,12,-1,14,-1,16,18,20,22,-1,-1,-1,-1,-1,-1,-1,-1],"split_conditions":[1E0,1.5536723E-1,1.0078637E4,1E0,1E0,1.1979323E-2,5.42115E-1,1E0,1.099589E-2,1E0,4.1274644E-2,1E0,1E0,1E0,9.2568E1,-2.9938882E-2,-1.9579206E-3,1.3603115E-2,-2.524694E-3,-8.103744E-3,2.9971717E-2,1.2195043E-3,3.9618786E-2],"split_indices":[27,6,4,21,16,0,0,38,0,15,0,34,18,20,0,0,0,0,0,0,0,0,0],"split_type":[0,0,0,0,0,0,0,0,0,0,0,0,0,0,0,0,0,0,0,0,0,0,0],"sum_hessian":[6.52E2,6.24E2,2.8E1,3.44E2,2.8E2,1.2E1,1.6E1,3.3E2,1.4E1,2.67E2,1.3E1,3.12E2,1.8E1,2.47E2,2E1,2.85E2,2.7E1,7E0,1.1E1,2.29E2,1.8E1,6E0,1.4E1],"tree_param":{"num_deleted":"0","num_feature":"47","num_nodes":"23","size_leaf_vector":"1"}},{"base_weights":[1.3176841E-2,-1.22071706E-1,2.9275618E0,-2.1847802E-1,-3.273662E-3,1.0873648E-2,4.9109244E-1,-1.9190785E-1,-4.0062413E-1,-2.2991693E-2,3.7441965E-2,-8.066339E-2,-2.4879543E-1,-3.0643066E-2,-5.034774E-2,-7.268202E-2,1.18599266E-1,-5.1254765E-3,-3.0185828E-2,-2.6949257E-2,9.791756E-3,-1.0456134E-2,1.4345962E-2,1.7251702E-2,-1.862793E-2],"categories":[],"categories_nodes":[],"categories_segments":[],"categories_sizes":[],"default_left":[0,0,0,0,0,0,0,0,0,0,0,0,0,0,0,0,0,0,0,0,0,0,0,0,0],"id":20,"left_children":[1,3,5,7,9,-1,-1,11,13,15,-1,17,19,-1,-1,21,23,-1,-1,-1,-1,-1,-1,-1,-1],"loss_changes":[2.57748E2,7.1573353E0,1.6159787E2,1.5927963E0,2.1013188E0,0E0,0E0,1.8974457E0,2.6230764E-1,1.894188E0,0E0,6.610522E-1,1.4615812E0,0E0,0E0,1.3861992E0,1.1828219E0,0E0,0E0,0E0,0E0,0E0,0E0,0E0,0E0],"parents":[2147483647,0,0,1,1,2,2,3,3,4,4,7,7,8,8,9,9,11,11,12,12,15,15,16,16],"right_children":[2,4,6,8,10,-1,-1,12,14,16,-1,18,20,-1,-1,22,24,-1,-1,-1,-1,-1,-1,-1,-1],"split_conditions":[1E0,1.5536723E-1,1.0078637E4,1E0,1E0,1.0873648E-2,4.9109244E-1,1.4262978E0,1E0,2.0488466E-1,3.7441965E-2,1E0,1E0,-3.0643066E-2,-5.034774E-2,1E0,1E0,-5.1254765E-3,-3.0185828E-2,-2.6949257E-2,9.791756E-3,-1.0456134E-2,1.4345962E-2,1.7251702E-2,-1.862793E-2],"split_indices":[27,6,4,41,16,0,0,3,23,6,0,22,21,0,0,33,41,0,0,0,0,0,0,0,0],"split_type":[0,0,0,0,0,0,0,0,0,0,0,0,0,0,0,0,0,0,0,0,0,0,0,0,0],"sum_hessian":[6.52E2,6.24E2,2.8E1,3.44E2,2.8E2,1.2E1,1.6E1,3.02E2,4.2E1,2.67E2,1.3E1,1.03E2,1.99E2,2.4E1,1.8E1,1.98E2,6.9E1,9.2E1,1.1E1,1.88E2,1.1E1,1.73E2,2.5E1,5.9E1,1E1],"tree_param":{"num_deleted":"0","num_feature":"47","num_nodes":"25","size_leaf_vector":"1"}},{"base_weights":[1.2485545E-2,-1.1001335E-1,2.6521175E0,-1.8579212E-1,1.3987373E-2,9.870089E-3,4.4487235E-1,-2.024548E-1,1.00616805E-1,-2.4025359E-3,5.551976E-2,-2.2161822E-1,2.854025E-2,1.3397272E-2,3.7550186E-3,-2.6927948E-2,3.5419364E-2,-2.4545396E-2,-5.7848763E-5,-4.668681E-3,1.0186463E-2,-5.378173E-3,3.4007873E-2],"categories":[],"categories_nodes":[],"categories_segments":[],"categories_sizes":[],"default_left":[0,0,0,0,0,0,0,0,0,0,0,0,0,0,0,0,0,0,0,0,0,0,0],"id":21,"left_children":[1,3,5,7,9,-1,-1,11,13,15,-1,17,19,-1,-1,21,-1,-1,-1,-1,-1,-1,-1],"loss_changes":[2.1144063E2,5.8754873E0,1.3259793E2,1.8720379E0,2.112486E0,0E0,0E0,1.630909E0,4.1249514E-2,2.0385327E0,0E0,1.7859268E0,1.6471907E-1,0E0,0E0,2.166793E0,0E0,0E0,0E0,0E0,0E0,0E0,0E0],"parents":[2147483647,0,0,1,1,2,2,3,3,4,4,7,7,8,8,9,9,11,11,12,12,15,15],"right_children":[2,4,6,8,10,-1,-1,12,14,16,-1,18,20,-1,-1,22,-1,-1,-1,-1,-1,-1,-1],"split_conditions":[1E0,1E0,1.0078637E4,1E0,1E0,9.870089E-3,4.4487235E-1,1E0,1.5616046E-1,1E0,5.551976E-2,1E0,1.2643678E-1,1.3397272E-2,3.7550186E-3,1E0,3.5419364E-2,-2.4545396E-2,-5.7848763E-5,-4.668681E-3,1.0186463E-2,-5.378173E-3,3.4007873E-2],"split_indices":[27,44,4,12,24,0,0,33,6,15,0,34,6,0,0,20,0,0,0,0,0,0,0],"split_type":[0,0,0,0,0,0,0,0,0,0,0,0,0,0,0,0,0,0,0,0,0,0,0],"sum_hessian":[6.52E2,6.24E2,2.8E1,3.87E2,2.37E2,1.2E1,1.6E1,3.66E2,2.1E1,2.31E2,6E0,3.38E2,2.8E1,1.3E1,8E0,2.17E2,1.4E1,3.05E2,3.3E1,1.4E1,1.4E1,2.03E2,1.4E1],"tree_param":{"num_deleted":"0","num_feature":"47","num_nodes":"23","size_leaf_vector":"1"}},{"base_weights":[1.2113329E-2,-9.8824024E-2,2.402587E0,-1.672188E-1,1.3091945E-2,8.958788E-3,4.0300223E-1,-1.4736618E-1,-3.910904E-2,-1.8852826E-3,5.076098E-2,-1.20894566E-1,-3.3847472E-1,-1.07609384E-1,7.353474E-2,-2.1867214E-2,-3.2346488E-3,-2.534546E-2,-4.3252885E-2,-1.4787029E-2,1.4164244E-2,1.0404303E-2,-2.5038783E-2],"categories":[],"categories_nodes":[],"categories_segments":[],"categories_sizes":[],"default_left":[0,0,0,0,0,0,0,0,0,0,0,0,0,0,0,0,0,0,0,0,0,0,0],"id":22,"left_children":[1,3,5,7,9,-1,-1,11,-1,13,-1,15,17,19,21,-1,-1,-1,-1,-1,-1,-1,-1],"loss_changes":[1.7340834E2,4.7862325E0,1.0880238E2,1.6668081E0,1.7637054E0,0E0,0E0,1.770186E0,0E0,1.8578148E0,0E0,2.72886E0,2.3422289E-1,9.943496E-1,1.3700471E0,0E0,0E0,0E0,0E0,0E0,0E0,0E0,0E0],"parents":[2147483647,0,0,1,1,2,2,3,3,4,4,7,7,9,9,11,11,12,12,13,13,14,14],"right_children":[2,4,6,8,10,-1,-1,12,-1,14,-1,16,18,20,22,-1,-1,-1,-1,-1,-1,-1,-1],"split_conditions":[1E0,1E0,1.0078637E4,1E0,1E0,8.958788E-3,4.0300223E-1,1E0,-3.910904E-2,4.9594596E-1,5.076098E-2,4.5578232E-1,1E0,1E0,1E0,-2.1867214E-2,-3.2346488E-3,-2.534546E-2,-4.3252885E-2,-1.4787029E-2,1.4164244E-2,1.0404303E-2,-2.5038783E-2],"split_indices":[27,44,4,25,24,0,0,41,0,5,0,5,23,28,22,0,0,0,0,0,0,0,0],"split_type":[0,0,0,0,0,0,0,0,0,0,0,0,0,0,0,0,0,0,0,0,0,0,0],"sum_hessian":[6.52E2,6.24E2,2.8E1,3.87E2,2.37E2,1.2E1,1.6E1,3.57E2,3E1,2.31E2,6E0,3.15E2,4.2E1,9.6E1,1.35E2,1.49E2,1.66E2,2.4E1,1.8E1,8.3E1,1.3E1,1.24E2,1.1E1],"tree_param":{"num_deleted":"0","num_feature":"47","num_nodes":"23","size_leaf_vector":"1"}},{"base_weights":[1.1382975E-2,-8.909833E-2,2.1765358E0,-1.5083984E-1,1.1930257E-2,8.131996E-3,3.6507282E-1,-1.6513124E-1,9.442312E-2,-8.223673E-3,3.3498056E-2,-1.7841548E-1,1.3744259E-2,1.2453624E-2,3.7089032E-3,-3.090863E-2,3.1142628E-2,-1.9572446E-2,6.6295946E-3,-4.766068E-3,4.641026E-2],"categories":[],"categories_nodes":[],"categories_segments":[],"categories_sizes":[],"default_left":[0,0,0,0,0,0,0,0,0,0,0,0,0,0,0,0,0,0,0,0,0],"id":23,"left_children":[1,3,5,7,9,-1,-1,11,13,15,-1,17,-1,-1,-1,19,-1,-1,-1,-1,-1],"loss_changes":[1.4225888E2,3.9003353E0,8.927692E1,1.3755913E0,1.5523094E0,0E0,0E0,1.4996634E0,3.336425E-2,1.641156E0,0E0,1.5039454E0,0E0,0E0,0E0,1.771827E0,0E0,0E0,0E0,0E0,0E0],"parents":[2147483647,0,0,1,1,2,2,3,3,4,4,7,7,8,8,9,9,11,11,15,15],"right_children":[2,4,6,8,10,-1,-1,12,14,16,-1,18,-1,-1,-1,20,-1,-1,-1,-1,-1],"split_conditions":[1E0,1E0,1.0078637E4,1E0,1E0,8.131996E-3,3.6507282E-1,1E0,1.5616046E-1,1E0,3.3498056E-2,1E0,1.3744259E-2,1.2453624E-2,3.7089032E-3,1E0,3.1142628E-2,-1.9572446E-2,6.6295946E-3,-4.766068E-3,4.641026E-2],"split_indices":[27,44,4,12,16,0,0,21,6,15,0,38,0,0,0,24,0,0,0,0,0],"split_type":[0,0,0,0,0,0,0,0,0,0,0,0,0,0,0,0,0,0,0,0,0],"sum_hessian":[6.52E2,6.24E2,2.8E1,3.87E2,2.37E2,1.2E1,1.6E1,3.66E2,2.1E1,2.24E2,1.3E1,3.51E2,1.5E1,1.3E1,8E0,2.1E2,1.4E1,3.28E2,2.3E1,2.04E2,6E0],"tree_param":{"num_deleted":"0","num_feature":"47","num_nodes":"21","size_leaf_vector":"1"}},{"base_weights":[1.1004157E-2,-7.999206E-2,1.9717501E0,-1.4429241E-1,-7.6212495E-4,7.3812637E-3,3.3071288E-1,-1.2640575E-1,-3.4228053E-2,-1.6673045E-2,3.038728E-2,-1.0615272E-1,-3.323781E-2,-3.666446E-2,2.4724941E-1,-7.447686E-3,-2.8710937E-2,-5.9476076E-3,2.1492295E-2,3.0310059E-3,3.0307923E-2],"categories":[],"categories_nodes":[],"categories_segments":[],"categories_sizes":[],"default_left":[0,0,0,0,0,0,0,0,0,0,0,0,0,0,0,0,0,0,0,0,0],"id":24,"left_children":[1,3,5,7,9,-1,-1,11,-1,13,-1,15,-1,17,19,-1,-1,-1,-1,-1,-1],"loss_changes":[1.16666306E2,3.183961E0,7.325539E1,1.1784983E0,1.3670796E0,0E0,0E0,1.2912745E0,0E0,1.4230824E0,0E0,1.6466167E0,0E0,1.4475614E0,2.2093558E-1,0E0,0E0,0E0,0E0,0E0,0E0],"parents":[2147483647,0,0,1,1,2,2,3,3,4,4,7,7,9,9,11,11,13,13,14,14],"right_children":[2,4,6,8,10,-1,-1,12,-1,14,-1,16,-1,18,20,-1,-1,-1,-1,-1,-1],"split_conditions":[1E0,1.5536723E-1,1.0078637E4,1E0,1E0,7.3812637E-3,3.3071288E-1,1E0,-3.4228053E-2,1E0,3.038728E-2,1E0,-3.323781E-2,1E0,1.2945285E0,-7.447686E-3,-2.8710937E-2,-5.9476076E-3,2.1492295E-2,3.0310059E-3,3.0307923E-2],"split_indices":[27,6,4,19,16,0,0,13,0,20,0,41,0,15,3,0,0,0,0,0,0],"split_type":[0,0,0,0,0,0,0,0,0,0,0,0,0,0,0,0,0,0,0,0,0],"sum_hessian":[6.52E2,6.24E2,2.8E1,3.44E2,2.8E2,1.2E1,1.6E1,3.17E2,2.7E1,2.67E2,1.3E1,2.9E2,2.7E1,2.49E2,1.8E1,2.48E2,4.2E1,2.29E2,2E1,4E0,1.4E1],"tree_param":{"num_deleted":"0","num_feature":"47","num_nodes":"21","size_leaf_vector":"1"}},{"base_weights":[1.0384809E-2,-7.20313E-2,1.7862359E0,-1.2300987E-1,1.1379274E-2,6.700252E-3,2.995871E-1,-1.04977E-1,-3.2729242E-2,4.3045685E-2,-1.6750018E-1,-8.0267005E-2,-2.521476E-1,6.6989735E-2,-2.0676762E-1,-1.932654E-2,-1.1854451E-1,-5.106139E-3,-2.5906762E-2,-1.7499002E-2,-3.0927738E-2,9.576711E-3,-1.9098865E-2,-1.2056733E-2,-2.3982048E-2,-7.3913573E-3,-1.48357395E-2],"categories":[],"categories_nodes":[],"categories_segments":[],"categories_sizes":[],"default_left":[0,0,0,0,0,0,0,0,0,0,0,0,0,0,0,0,0,0,0,0,0,0,0,0,0,0,0],"id":25,"left_children":[1,3,5,7,9,-1,-1,11,-1,13,15,17,19,21,23,-1,25,-1,-1,-1,-1,-1,-1,-1,-1,-1,-1],"loss_changes":[9.570092E1,2.658994E0,6.0108994E1,1.3949571E0,1.3553541E0,0E0,0E0,1.2816579E0,0E0,1.2281045E0,2.249813E-2,1.5951424E0,1.7068768E-1,1.3991435E0,2.2370458E-2,0E0,8.993015E-3,0E0,0E0,0E0,0E0,0E0,0E0,0E0,0E0,0E0,0E0],"parents":[2147483647,0,0,1,1,2,2,3,3,4,4,7,7,9,9,10,10,11,11,12,12,13,13,14,14,16,16],"right_children":[2,4,6,8,10,-1,-1,12,-1,14,16,18,20,22,24,-1,26,-1,-1,-1,-1,-1,-1,-1,-1,-1,-1],"split_conditions":[1E0,1E0,1.0078637E4,1E0,1E0,6.700252E-3,2.995871E-1,1E0,-3.2729242E-2,1E0,1E0,1E0,1E0,1E0,1E0,-1.932654E-2,1.0187076E4,-5.106139E-3,-2.5906762E-2,-1.7499002E-2,-3.0927738E-2,9.576711E-3,-1.9098865E-2,-1.2056733E-2,-2.3982048E-2,-7.3913573E-3,-1.48357395E-2],"split_indices":[27,44,4,25,41,0,0,37,0,37,23,41,19,18,19,0,4,0,0,0,0,0,0,0,0,0,0],"split_type":[0,0,0,0,0,0,0,0,0,0,0,0,0,0,0,0,0,0,0,0,0,0,0,0,0,0,0],"sum_hessian":[6.52E2,6.24E2,2.8E1,3.87E2,2.37E2,1.2E1,1.6E1,3.57E2,3E1,2.02E2,3.5E1,3.07E2,5E1,1.85E2,1.7E1,2.1E1,1.4E1,2.65E2,4.2E1,2.3E1,2.7E1,1.67E2,1.8E1,6E0,1.1E1,7E0,7E0],"tree_param":{"num_deleted":"0","num_feature":"47","num_nodes":"27","size_leaf_vector":"1"}},{"base_weights":[9.510198E-3,-6.514715E-2,1.6181767E0,-1.1099874E-1,9.876251E-3,6.0819187E-3,2.7139103E-1,-9.4702095E-2,-2.9561812E-2,-2.577453E-3,4.212167E-2,-7.743833E-2,-2.9540226E-2,-2.1035535E-2,2.6585186E-2,-4.985837E-3,-2.2788014E-2,7.741149E-3,-9.218586E-3],"categories":[],"categories_nodes":[],"categories_segments":[],"categories_sizes":[],"default_left":[0,0,0,0,0,0,0,0,0,0,0,0,0,0,0,0,0,0,0],"id":26,"left_children":[1,3,5,7,9,-1,-1,11,-1,13,-1,15,-1,17,-1,-1,-1,-1,-1],"loss_changes":[7.8529915E1,2.1510608E0,4.932196E1,1.1393709E0,1.2202911E0,0E0,0E0,1.2175374E0,0E0,1.1550806E0,0E0,1.362017E0,0E0,1.5341252E0,0E0,0E0,0E0,0E0,0E0],"parents":[2147483647,0,0,1,1,2,2,3,3,4,4,7,7,9,9,11,11,13,13],"right_children":[2,4,6,8,10,-1,-1,12,-1,14,-1,16,-1,18,-1,-1,-1,-1,-1],"split_conditions":[1E0,1E0,1.0078637E4,1E0,1E0,6.0819187E-3,2.7139103E-1,1E0,-2.9561812E-2,1E0,4.212167E-2,1E0,-2.9540226E-2,1.137199E0,2.6585186E-2,-4.985837E-3,-2.2788014E-2,7.741149E-3,-9.218586E-3],"split_indices":[27,44,4,25,24,0,0,13,0,20,0,37,0,3,0,0,0,0,0],"split_type":[0,0,0,0,0,0,0,0,0,0,0,0,0,0,0,0,0,0,0],"sum_hessian":[6.52E2,6.24E2,2.8E1,3.87E2,2.37E2,1.2E1,1.6E1,3.57E2,3E1,2.31E2,6E0,3.3E2,2.7E1,2.17E2,1.4E1,2.8E2,5E1,9.1E1,1.26E2],"tree_param":{"num_deleted":"0","num_feature":"47","num_nodes":"19","size_leaf_vector":"1"}},{"base_weights":[8.954935E-3,-5.866288E-2,1.4659266E0,-2.9794572E-2,-1.5938376E-1,5.52063E-3,2.4584818E-1,-1.018117E-2,-2.3736082E-1,-2.0061843E-1,-9.255933E-3,1.4972201E-2,-1.8927099E-1,-1.6147198E-2,-3.0556053E-2,-2.6089823E-2,-1.7217879E-1,-1.1434228E-1,7.2992116E-2,4.55165E-3,-1.8125484E-2,-1.3467662E-2,-2.4498485E-2,-1.5092718E-2,-2.5703048E-2,-1.226724E-2,-4.2907717E-3,9.815826E-3,3.691949E-3],"categories":[],"categories_nodes":[],"categories_segments":[],"categories_sizes":[],"default_left":[0,0,0,0,0,0,0,0,0,0,0,0,0,0,0,0,0,0,0,0,0,0,0,0,0,0,0,0,0],"id":27,"left_children":[1,3,5,7,9,-1,-1,11,13,15,17,19,21,-1,-1,-1,23,25,27,-1,-1,-1,-1,-1,-1,-1,-1,-1,-1],"loss_changes":[6.441775E1,1.8125272E0,4.047059E1,1.9801996E0,8.5861874E-1,0E0,0E0,2.0119355E0,1.680355E-1,1.4194155E-1,2.7628365E-1,2.3577478E0,1.3429773E-1,0E0,0E0,0E0,1.0005641E-1,3.0672252E-3,1.2716614E-2,0E0,0E0,0E0,0E0,0E0,0E0,0E0,0E0,0E0,0E0],"parents":[2147483647,0,0,1,1,2,2,3,3,4,4,7,7,8,8,9,9,10,10,11,11,12,12,16,16,17,17,18,18],"right_children":[2,4,6,8,10,-1,-1,12,14,16,18,20,22,-1,-1,-1,24,26,28,-1,-1,-1,-1,-1,-1,-1,-1,-1,-1],"split_conditions":[1E0,2.1167617E0,1.0078637E4,1E0,2.3859487E0,5.52063E-3,2.4584818E-1,1E0,1E0,2.2226098E0,3.1019278E1,1E0,1E0,-1.6147198E-2,-3.0556053E-2,-2.6089823E-2,1E0,2.0343462E-1,2.428322E0,4.55165E-3,-1.8125484E-2,-1.3467662E-2,-2.4498485E-2,-1.5092718E-2,-2.5703048E-2,-1.226724E-2,-4.2907717E-3,9.815826E-3,3.691949E-3],"split_indices":[27,3,4,41,3,0,0,37,23,3,2,40,19,0,0,0,13,6,3,0,0,0,0,0,0,0,0,0,0],"split_type":[0,0,0,0,0,0,0,0,0,0,0,0,0,0,0,0,0,0,0,0,0,0,0,0,0,0,0,0,0],"sum_hessian":[6.52E2,6.24E2,2.8E1,4.86E2,1.38E2,1.2E1,1.6E1,4.45E2,4.1E1,1.08E2,3E1,3.91E2,5.4E1,2.1E1,2E1,3.2E1,7.6E1,1.3E1,1.7E1,3.39E2,5.2E1,2.9E1,2.5E1,6.3E1,1.3E1,1.1E1,2E0,9E0,8E0],"tree_param":{"num_deleted":"0","num_feature":"47","num_nodes":"29","size_leaf_vector":"1"}},{"base_weights":[8.184996E-3,-5.3067505E-2,1.3279998E0,-9.30209E-2,1.2289576E-2,5.0107515E-3,2.227094E-1,-1.0262296E-1,1.3664103E-2,-5.0154543E-3,2.5271034E-1,-1.1469605E-1,9.521103E-2,-9.007526E-2,5.2151695E-2,3.8120817E-2,1.3749084E-1,-1.2999408E-2,6.0174875E-3,1.2283162E-2,4.166667E-3,-1.2764186E-2,1.2297494E-2,7.945041E-3,-2.3200607E-2,2.0354716E-2,3.0725098E-3],"categories":[],"categories_nodes":[],"categories_segments":[],"categories_sizes":[],"default_left":[0,0,0,0,0,0,0,0,0,0,0,0,0,0,0,0,0,0,0,0,0,0,0,0,0,0,0],"id":28,"left_children":[1,3,5,7,9,-1,-1,11,-1,13,15,17,19,21,23,-1,25,-1,-1,-1,-1,-1,-1,-1,-1,-1,-1],"loss_changes":[5.286027E1,1.6331667E0,3.320782E1,8.696511E-1,9.914638E-1,0E0,0E0,9.0181875E-1,0E0,1.0890633E0,1.8447459E-1,9.494853E-1,2.741839E-2,7.3601806E-1,1.0578899E0,0E0,6.427151E-2,0E0,0E0,0E0,0E0,0E0,0E0,0E0,0E0,0E0,0E0],"parents":[2147483647,0,0,1,1,2,2,3,3,4,4,7,7,9,9,10,10,11,11,12,12,13,13,14,14,16,16],"right_children":[2,4,6,8,10,-1,-1,12,-1,14,16,18,20,22,24,-1,26,-1,-1,-1,-1,-1,-1,-1,-1,-1,-1],"split_conditions":[1E0,1E0,1.0078637E4,1E0,1E0,5.0107515E-3,2.227094E-1,1E0,1.3664103E-2,4.9594596E-1,1E0,1E0,1.5616046E-1,1E0,1E0,3.8120817E-2,2.6993006E-1,-1.2999408E-2,6.0174875E-3,1.2283162E-2,4.166667E-3,-1.2764186E-2,1.2297494E-2,7.945041E-3,-2.3200607E-2,2.0354716E-2,3.0725098E-3],"split_indices":[27,44,4,21,39,0,0,12,0,5,21,33,6,28,22,0,5,0,0,0,0,0,0,0,0,0,0],"split_type":[0,0,0,0,0,0,0,0,0,0,0,0,0,0,0,0,0,0,0,0,0,0,0,0,0,0,0],"sum_hessian":[6.52E2,6.24E2,2.8E1,3.87E2,2.37E2,1.2E1,1.6E1,3.72E2,1.5E1,2.22E2,1.5E1,3.51E2,2.1E1,8.9E1,1.33E2,6E0,9E0,3.23E2,2.8E1,1.3E1,8E0,7.6E1,1.3E1,1.22E2,1.1E1,5E0,4E0],"tree_param":{"num_deleted":"0","num_feature":"47","num_nodes":"27","size_leaf_vector":"1"}},{"base_weights":[7.821684E-3,-4.7649488E-2,1.2030513E0,-5.7989933E-2,1.9280888E-1,4.5480584E-3,2.0174848E-1,-7.03774E-2,1.5698196E-1,1.1842041E-1,2.2522511E-2,-8.736692E-2,9.295555E-2,2.3899486E-2,8.397273E-2,1.617686E-2,4.2718507E-2,-1.0233917E-2,1.49694625E-2,-1.4543661E-3,1.3094387E-2,9.480062E-3,-5.37618E-4,5.3066253E-3,6.637573E-5],"categories":[],"categories_nodes":[],"categories_segments":[],"categories_sizes":[],"default_left":[0,0,0,0,0,0,0,0,0,0,0,0,0,0,0,0,0,0,0,0,0,0,0,0,0],"id":29,"left_children":[1,3,5,7,9,-1,-1,11,13,15,-1,17,19,-1,21,-1,23,-1,-1,-1,-1,-1,-1,-1,-1],"loss_changes":[4.3351738E1,1.5652102E0,2.724841E1,1.6088226E0,3.6025047E-2,0E0,0E0,1.5842919E0,1.7752504E-1,2.5904894E-2,0E0,1.8432324E0,2.2242501E-1,0E0,1.889138E-2,0E0,2.1406366E-3,0E0,0E0,0E0,0E0,0E0,0E0,0E0,0E0],"parents":[2147483647,0,0,1,1,2,2,3,3,4,4,7,7,8,8,9,9,11,11,12,12,14,14,16,16],"right_children":[2,4,6,8,10,-1,-1,12,14,16,-1,18,20,-1,22,-1,24,-1,-1,-1,-1,-1,-1,-1,-1],"split_conditions":[1E0,1E0,1.0078637E4,1E0,1.2945285E0,4.5480584E-3,2.0174848E-1,1E0,1.0374836E4,1.5229885E-1,2.2522511E-2,1E0,1.2643678E-1,2.3899486E-2,1.6502115E-1,1.617686E-2,1.6124469E-1,-1.0233917E-2,1.49694625E-2,-1.4543661E-3,1.3094387E-2,9.480062E-3,-5.37618E-4,5.3066253E-3,6.637573E-5],"split_indices":[27,20,4,15,3,0,0,33,4,6,0,12,6,0,6,0,6,0,0,0,0,0,0,0,0],"split_type":[0,0,0,0,0,0,0,0,0,0,0,0,0,0,0,0,0,0,0,0,0,0,0,0,0],"sum_hessian":[6.52E2,6.24E2,2.8E1,5.99E2,2.5E1,1.2E1,1.6E1,5.67E2,3.2E1,9E0,1.6E1,5.14E2,5.3E1,1.4E1,1.8E1,5E0,4E0,4.84E2,3E1,1.4E1,3.9E1,1.6E1,2E0,3E0,1E0],"tree_param":{"num_deleted":"0","num_feature":"47","num_nodes":"25","size_leaf_vector":"1"}},{"base_weights":[7.4961665E-3,-4.273744E-2,1.0898585E0,-5.2111182E-2,1.7522343E-1,4.1283243E-3,1.8276009E-1,-6.3313045E-2,1.4227572E-1,1.9340733E-1,8.237585E-2,-7.573021E-2,1.3393694E-1,2.166855E-2,7.604298E-2,2.0011596E-2,2.961731E-3,6.2942505E-5,9.859924E-3,-9.345451E-3,8.387799E-3,2.5746971E-2,4.52038E-3,8.587512E-3,-5.020142E-4],"categories":[],"categories_nodes":[],"categories_segments":[],"categories_sizes":[],"default_left":[0,0,0,0,0,0,0,0,0,0,0,0,0,0,0,0,0,0,0,0,0,0,0,0,0],"id":30,"left_children":[1,3,5,7,9,-1,-1,11,13,15,17,19,21,-1,23,-1,-1,-1,-1,-1,-1,-1,-1,-1,-1],"loss_changes":[3.5550816E1,1.286074E0,2.2358322E1,1.3155049E0,2.7964473E-2,0E0,0E0,1.4013379E0,1.4615864E-1,1.7148077E-2,7.895172E-3,1.5213237E0,3.6105067E-1,0E0,1.5574552E-2,0E0,0E0,0E0,0E0,0E0,0E0,0E0,0E0,0E0,0E0],"parents":[2147483647,0,0,1,1,2,2,3,3,4,4,7,7,8,8,9,9,10,10,11,11,12,12,14,14],"right_children":[2,4,6,8,10,-1,-1,12,14,16,18,20,22,-1,24,-1,-1,-1,-1,-1,-1,-1,-1,-1,-1],"split_conditions":[1E0,1E0,1.0078637E4,1E0,4.2817074E1,4.1283243E-3,1.8276009E-1,1E0,1.0374836E4,1.0898949E4,9.157E1,1E0,5.897436E-1,2.166855E-2,1.6502115E-1,2.0011596E-2,2.961731E-3,6.2942505E-5,9.859924E-3,-9.345451E-3,8.387799E-3,2.5746971E-2,4.52038E-3,8.587512E-3,-5.020142E-4],"split_indices":[27,20,4,15,2,0,0,16,4,4,0,33,5,0,6,0,0,0,0,0,0,0,0,0,0],"split_type":[0,0,0,0,0,0,0,0,0,0,0,0,0,0,0,0,0,0,0,0,0,0,0,0,0],"sum_hessian":[6.52E2,6.24E2,2.8E1,5.99E2,2.5E1,1.2E1,1.6E1,5.67E2,3.2E1,2E1,5E0,5.34E2,3.3E1,1.4E1,1.8E1,1.9E1,1E0,1E0,4E0,4.81E2,5.3E1,1.3E1,2E1,1.6E1,2E0],"tree_param":{"num_deleted":"0","num_feature":"47","num_nodes":"25","size_leaf_vector":"1"}},{"base_weights":[7.1742362E-3,-3.8315833E-2,9.8731625E-1,-5.385477E-2,8.56551E-2,3.747324E-3,1.6555893E-1,-6.5147296E-2,1.2143483E-1,1.190347E-1,-1.0420227E-1,-7.913173E-2,7.174558E-2,2.3355974E-2,4.0902276E-2,1.4785863E-1,-1.650238E-1,-1.6115952E-2,-2.9877981E-2,-9.524244E-3,5.97142E-3,-2.100932E-3,1.0944781E-2,5.0272625E-3,3.126878E-3,1.8822707E-2,-7.9383E-3,-8.457757E-3,-2.1727754E-2,-3.6352158E-3,-1.1286418E-3],"categories":[],"categories_nodes":[],"categories_segments":[],"categories_sizes":[],"default_left":[0,0,0,0,0,0,0,0,0,0,0,0,0,0,0,0,0,0,0,0,0,0,0,0,0,0,0,0,0,0,0],"id":31,"left_children":[1,3,5,7,9,-1,-1,11,13,15,17,19,21,-1,23,25,27,-1,29,-1,-1,-1,-1,-1,-1,-1,-1,-1,-1,-1,-1],"loss_changes":[2.9152964E1,1.2085984E0,1.834584E1,1.1084924E0,4.5601916E-1,0E0,0E0,1.0068922E0,2.9745692E-1,5.156612E-1,4.175125E-2,1.068218E0,1.7365566E-1,0E0,3.2369047E-4,5.194783E-1,6.844908E-3,0E0,3.119046E-4,0E0,0E0,0E0,0E0,0E0,0E0,0E0,0E0,0E0,0E0,0E0,0E0],"parents":[2147483647,0,0,1,1,2,2,3,3,4,4,7,7,8,8,9,9,10,10,11,11,12,12,14,14,15,15,16,16,18,18],"right_children":[2,4,6,8,10,-1,-1,12,14,16,18,20,22,-1,24,26,28,-1,30,-1,-1,-1,-1,-1,-1,-1,-1,-1,-1,-1,-1],"split_conditions":[1E0,2.0488466E-1,1.0078637E4,1E0,1E0,3.747324E-3,1.6555893E-1,1E0,5.897436E-1,1E0,9.5434E1,1E0,1.2643678E-1,2.3355974E-2,4.017195E1,1E0,1.0160004E4,-1.6115952E-2,9.795E1,-9.524244E-3,5.97142E-3,-2.100932E-3,1.0944781E-2,5.0272625E-3,3.126878E-3,1.8822707E-2,-7.9383E-3,-8.457757E-3,-2.1727754E-2,-3.6352158E-3,-1.1286418E-3],"split_indices":[27,6,4,16,41,0,0,33,5,22,0,34,6,0,2,40,4,0,0,0,0,0,0,0,0,0,0,0,0,0,0],"split_type":[0,0,0,0,0,0,0,0,0,0,0,0,0,0,0,0,0,0,0,0,0,0,0,0,0,0,0,0,0,0,0],"sum_hessian":[6.52E2,6.24E2,2.8E1,5.55E2,6.9E1,1.2E1,1.6E1,5.22E2,3.3E1,5.9E1,1E1,4.74E2,4.8E1,1.3E1,2E1,5.4E1,5E0,5E0,5E0,4.25E2,4.9E1,1.4E1,3.4E1,8E0,1.2E1,4.6E1,8E0,3E0,2E0,3E0,2E0],"tree_param":{"num_deleted":"0","num_feature":"47","num_nodes":"31","size_leaf_vector":"1"}},{"base_weights":[6.7087733E-3,-3.4491945E-2,8.944239E-1,-2.2696005E-2,-1.8602413E-1,3.4015363E-3,1.4997701E-1,-8.938171E-3,-1.7881824E-1,-8.076287E-3,-2.0328904E-2,1.2663729E-2,-1.356655E-1,-1.9481126E-2,-7.650089E-2,3.969896E-3,-1.4297508E-2,-1.7554674E-2,-8.672828E-3,-8.234515E-3,-1.7795563E-3],"categories":[],"categories_nodes":[],"categories_segments":[],"categories_sizes":[],"default_left":[0,0,0,0,0,0,0,0,0,0,0,0,0,0,0,0,0,0,0,0,0],"id":32,"left_children":[1,3,5,7,9,-1,-1,11,13,-1,-1,15,17,-1,19,-1,-1,-1,-1,-1,-1],"loss_changes":[2.3913998E1,1.1129434E0,1.50534935E1,1.2463336E0,6.53615E-2,0E0,0E0,1.4663079E0,6.2005877E-2,0E0,0E0,1.9328169E0,1.3700593E-1,0E0,1.2793317E-3,0E0,0E0,0E0,0E0,0E0,0E0],"parents":[2147483647,0,0,1,1,2,2,3,3,4,4,7,7,8,8,11,11,12,12,14,14],"right_children":[2,4,6,8,10,-1,-1,12,14,-1,-1,16,18,-1,20,-1,-1,-1,-1,-1,-1],"split_conditions":[1E0,1E0,1.0078637E4,1E0,3.1019278E1,3.4015363E-3,1.4997701E-1,1E0,9.6102E1,-8.076287E-3,-2.0328904E-2,1E0,1.8168936E0,-1.9481126E-2,2.0470263E-1,3.969896E-3,-1.4297508E-2,-1.7554674E-2,-8.672828E-3,-8.234515E-3,-1.7795563E-3],"split_indices":[27,13,4,25,2,0,0,41,0,0,0,37,3,0,6,0,0,0,0,0,0],"split_type":[0,0,0,0,0,0,0,0,0,0,0,0,0,0,0,0,0,0,0,0,0],"sum_hessian":[6.52E2,6.24E2,2.8E1,5.8E2,4.4E1,1.2E1,1.6E1,5.34E2,4.6E1,7E0,3.7E1,4.57E2,7.7E1,3.9E1,7E0,3.9E2,6.7E1,4.1E1,3.6E1,6E0,1E0],"tree_param":{"num_deleted":"0","num_feature":"47","num_nodes":"21","size_leaf_vector":"1"}},{"base_weights":[6.1297687E-3,-3.1192102E-2,8.1026906E-1,-2.1406107E-2,-1.9554444E-1,3.08744E-3,1.3586138E-1,-9.303063E-3,-1.6804962E-1,-7.969793E-3,-2.1219559E-2,4.9997508E-3,-1.6156703E-1,-7.369328E-3,-1.8349176E-2,2.8430976E-3,-1.2243408E-2,-1.7582035E-2,-7.01046E-3],"categories":[],"categories_nodes":[],"categories_segments":[],"categories_sizes":[],"default_left":[0,0,0,0,0,0,0,0,0,0,0,0,0,0,0,0,0,0,0],"id":33,"left_children":[1,3,5,7,9,-1,-1,11,13,-1,-1,15,17,-1,-1,-1,-1,-1,-1],"loss_changes":[1.9623098E1,1.0010337E0,1.2351984E1,1.0473628E0,5.0602674E-2,0E0,0E0,1.1920662E0,5.2045822E-2,0E0,0E0,1.4994321E0,4.8945427E-2,0E0,0E0,0E0,0E0,0E0,0E0],"parents":[2147483647,0,0,1,1,2,2,3,3,4,4,7,7,8,8,11,11,12,12],"right_children":[2,4,6,8,10,-1,-1,12,14,-1,-1,16,18,-1,-1,-1,-1,-1,-1],"split_conditions":[1E0,1E0,1.0078637E4,1E0,5.2965516E-1,3.08744E-3,1.3586138E-1,1E0,3.1019278E1,-7.969793E-3,-2.1219559E-2,1E0,9.6102E1,-7.369328E-3,-1.8349176E-2,2.8430976E-3,-1.2243408E-2,-1.7582035E-2,-7.01046E-3],"split_indices":[27,22,4,13,5,0,0,25,2,0,0,41,0,0,0,0,0,0,0],"split_type":[0,0,0,0,0,0,0,0,0,0,0,0,0,0,0,0,0,0,0],"sum_hessian":[6.52E2,6.24E2,2.8E1,5.9E2,3.4E1,1.2E1,1.6E1,5.46E2,4.4E1,5E0,2.9E1,5E2,4.6E1,7E0,3.7E1,4.23E2,7.7E1,3.9E1,7E0],"tree_param":{"num_deleted":"0","num_feature":"47","num_nodes":"19","size_leaf_vector":"1"}},{"base_weights":[5.5919373E-3,-2.8216578E-2,7.340309E-1,-3.691045E-2,1.3955984E-1,2.802218E-3,1.2307417E-1,-4.555115E-2,1.5394005E-1,2.5805324E-2,8.712503E-2,-6.050258E-2,7.792996E-2,1.1763898E-1,2.0025788E-2,1.0871942E-2,4.818039E-2,-7.2409147E-3,1.1343476E-2,2.4831137E-2,2.306223E-3,4.093425E-3,1.25137335E-2,7.11956E-3,2.8145926E-3],"categories":[],"categories_nodes":[],"categories_segments":[],"categories_sizes":[],"default_left":[0,0,0,0,0,0,0,0,0,0,0,0,0,0,0,0,0,0,0,0,0,0,0,0,0],"id":34,"left_children":[1,3,5,7,9,-1,-1,11,13,-1,15,17,19,21,-1,-1,23,-1,-1,-1,-1,-1,-1,-1,-1],"loss_changes":[1.6102428E1,9.1679263E-1,1.0135292E1,9.8821664E-1,1.7012566E-1,0E0,0E0,1.0570598E0,2.0157933E-2,0E0,1.4104515E-2,1.0623506E0,5.7387674E-1,4.6553016E-3,0E0,0E0,2.6071072E-3,0E0,0E0,0E0,0E0,0E0,0E0,0E0,0E0],"parents":[2147483647,0,0,1,1,2,2,3,3,4,4,7,7,8,8,10,10,11,11,12,12,13,13,16,16],"right_children":[2,4,6,8,10,-1,-1,12,14,-1,16,18,20,22,-1,-1,24,-1,-1,-1,-1,-1,-1,-1,-1],"split_conditions":[1E0,1E0,1.0078637E4,1E0,1.0094542E4,2.802218E-3,1.2307417E-1,1E0,1.4112011E0,2.5805324E-2,1.5616046E-1,1E0,1.0419152E4,4.7567567E-1,2.0025788E-2,1.0871942E-2,1.0487999E4,-7.2409147E-3,1.1343476E-2,2.4831137E-2,2.306223E-3,4.093425E-3,1.25137335E-2,7.11956E-3,2.8145926E-3],"split_indices":[27,12,4,20,4,0,0,39,3,0,6,15,4,5,0,0,4,0,0,0,0,0,0,0,0],"split_type":[0,0,0,0,0,0,0,0,0,0,0,0,0,0,0,0,0,0,0,0,0,0,0,0,0],"sum_hessian":[6.52E2,6.24E2,2.8E1,5.94E2,3E1,1.2E1,1.6E1,5.69E2,2.5E1,8E0,2.2E1,5.08E2,6.1E1,1.6E1,9E0,1.3E1,9E0,4.76E2,3.2E1,1.4E1,4.7E1,2E0,1.4E1,3E0,6E0],"tree_param":{"num_deleted":"0","num_feature":"47","num_nodes":"25","size_leaf_vector":"1"}},{"base_weights":[5.400408E-3,-2.5212146E-2,6.649675E-1,-1.5631888E-2,-1.6876084E-1,2.5437574E-3,1.11490406E-1,-5.8466545E-3,-1.6979195E-1,-6.750679E-3,-1.7532349E-1,6.4439457E-3,-1.4473708E-1,-6.7020417E-3,-1.8468654E-2,-1.774218E-2,-5.094147E-3,2.6182074E-3,-1.0463468E-2,-6.0909274E-3,-1.5857616E-2],"categories":[],"categories_nodes":[],"categories_segments":[],"categories_sizes":[],"default_left":[0,0,0,0,0,0,0,0,0,0,0,0,0,0,0,0,0,0,0,0,0],"id":35,"left_children":[1,3,5,7,9,-1,-1,11,13,-1,15,17,19,-1,-1,-1,-1,-1,-1,-1,-1],"loss_changes":[1.320151E1,8.568828E-1,8.316327E0,8.844923E-1,1.407969E-2,0E0,0E0,9.4492936E-1,4.1198015E-2,0E0,3.5750866E-4,1.1187139E0,4.2545855E-2,0E0,0E0,0E0,0E0,0E0,0E0,0E0,0E0],"parents":[2147483647,0,0,1,1,2,2,3,3,4,4,7,7,8,8,10,10,11,11,12,12],"right_children":[2,4,6,8,10,-1,-1,12,14,-1,16,18,20,-1,-1,-1,-1,-1,-1,-1,-1],"split_conditions":[1E0,1E0,1.0078637E4,1E0,4.297994E-3,2.5437574E-3,1.11490406E-1,1E0,5.2965516E-1,-6.750679E-3,9.5739E1,1E0,3.1019278E1,-6.7020417E-3,-1.8468654E-2,-1.774218E-2,-5.094147E-3,2.6182074E-3,-1.0463468E-2,-6.0909274E-3,-1.5857616E-2],"split_indices":[27,19,4,22,5,0,0,13,5,0,0,40,2,0,0,0,0,0,0,0,0],"split_type":[0,0,0,0,0,0,0,0,0,0,0,0,0,0,0,0,0,0,0,0,0],"sum_hessian":[6.52E2,6.24E2,2.8E1,5.86E2,3.8E1,1.2E1,1.6E1,5.52E2,3.4E1,3E0,3.5E1,5.08E2,4.4E1,5E0,2.9E1,3.4E1,1E0,4.32E2,7.6E1,7E0,3.7E1],"tree_param":{"num_deleted":"0","num_feature":"47","num_nodes":"21","size_leaf_vector":"1"}},{"base_weights":[4.906121E-3,-2.2825696E-2,6.024054E-1,-5.1064875E-2,2.3307191E-2,2.3092418E-3,1.0099739E-1,-5.9052516E-2,1.3833857E-2,1.38940485E-2,3.3195607E-2,-6.839475E-2,7.964897E-2,1.304313E-3,2.0984104E-2,-7.7663152E-3,7.331883E-3,8.359992E-3,-5.61142E-4,-9.3485153E-4,2.2488328E-2],"categories":[],"categories_nodes":[],"categories_segments":[],"categories_sizes":[],"default_left":[0,0,0,0,0,0,0,0,0,0,0,0,0,0,0,0,0,0,0,0,0],"id":36,"left_children":[1,3,5,7,9,-1,-1,11,-1,13,-1,15,17,19,-1,-1,-1,-1,-1,-1,-1],"loss_changes":[1.0833792E1,8.15412E-1,6.82386E0,5.951693E-1,6.8686247E-1,0E0,0E0,4.8877442E-1,0E0,5.7205194E-1,0E0,4.654044E-1,8.553728E-3,5.237051E-1,0E0,0E0,0E0,0E0,0E0,0E0,0E0],"parents":[2147483647,0,0,1,1,2,2,3,3,4,4,7,7,9,9,11,11,12,12,13,13],"right_children":[2,4,6,8,10,-1,-1,12,-1,14,-1,16,18,20,-1,-1,-1,-1,-1,-1,-1],"split_conditions":[1E0,1E0,1.0078637E4,1E0,1E0,2.3092418E-3,1.0099739E-1,1E0,1.3833857E-2,1E0,3.3195607E-2,1E0,1.6124469E-1,1E0,2.0984104E-2,-7.7663152E-3,7.331883E-3,8.359992E-3,-5.61142E-4,-9.3485153E-4,2.2488328E-2],"split_indices":[27,44,4,21,24,0,0,38,0,16,0,12,6,12,0,0,0,0,0,0,0],"split_type":[0,0,0,0,0,0,0,0,0,0,0,0,0,0,0,0,0,0,0,0,0],"sum_hessian":[6.52E2,6.24E2,2.8E1,3.87E2,2.37E2,1.2E1,1.6E1,3.72E2,1.5E1,2.31E2,6E0,3.49E2,2.3E1,2.18E2,1.3E1,3.28E2,2.1E1,2.2E1,1E0,2.09E2,9E0],"tree_param":{"num_deleted":"0","num_feature":"47","num_nodes":"21","size_leaf_vector":"1"}},{"base_weights":[4.7234483E-3,-2.0386621E-2,5.457259E-1,-1.1939872E-2,-1.4699829E-1,2.0958534E-3,9.14917E-2,1.7318127E-3,-1.0117859E-1,-6.173897E-3,-1.5238826E-2,1.2747564E-2,-1.4813189E-1,-1.2632383E-1,-4.281769E-2,2.7591493E-3,-1.2332981E-2,-6.0656234E-3,-1.606893E-2,-7.985866E-3,-1.7702913E-2,-6.2742345E-3,-4.24703E-5],"categories":[],"categories_nodes":[],"categories_segments":[],"categories_sizes":[],"default_left":[0,0,0,0,0,0,0,0,0,0,0,0,0,0,0,0,0,0,0,0,0,0,0],"id":37,"left_children":[1,3,5,7,9,-1,-1,11,13,-1,-1,15,17,19,21,-1,-1,-1,-1,-1,-1,-1,-1],"loss_changes":[8.881874E0,6.666554E-1,5.599269E0,7.163408E-1,8.513987E-3,0E0,0E0,8.438276E-1,1.09056115E-1,0E0,0E0,9.648861E-1,2.8699517E-2,1.1308831E-1,2.1089997E-2,0E0,0E0,0E0,0E0,0E0,0E0,0E0,0E0],"parents":[2147483647,0,0,1,1,2,2,3,3,4,4,7,7,8,8,11,11,12,12,13,13,14,14],"right_children":[2,4,6,8,10,-1,-1,12,14,-1,-1,16,18,20,22,-1,-1,-1,-1,-1,-1,-1,-1],"split_conditions":[1E0,1E0,1.0078637E4,1E0,4.297994E-3,2.0958534E-3,9.14917E-2,1E0,9.5462E1,-6.173897E-3,-1.5238826E-2,1E0,5.2965516E-1,1E0,1E0,2.7591493E-3,-1.2332981E-2,-6.0656234E-3,-1.606893E-2,-7.985866E-3,-1.7702913E-2,-6.2742345E-3,-4.24703E-5],"split_indices":[27,19,4,41,5,0,0,22,0,0,0,25,5,23,23,0,0,0,0,0,0,0,0],"split_type":[0,0,0,0,0,0,0,0,0,0,0,0,0,0,0,0,0,0,0,0,0,0,0],"sum_hessian":[6.52E2,6.24E2,2.8E1,5.86E2,3.8E1,1.2E1,1.6E1,5.09E2,7.7E1,3E0,3.5E1,4.75E2,3.4E1,5.3E1,2.4E1,4.29E2,4.6E1,5E0,2.9E1,2.9E1,2.4E1,1.6E1,8E0],"tree_param":{"num_deleted":"0","num_feature":"47","num_nodes":"23","size_leaf_vector":"1"}},{"base_weights":[4.2622495E-3,-1.848601E-2,4.943795E-1,-4.3512363E-2,2.2390926E-2,1.9021841E-3,8.288072E-2,-5.052897E-2,1.2278176E-2,3.6722112E-2,-1.447276E-1,-4.2869847E-2,-1.909742E-2,2.790148E-2,3.0113548E-2,-2.052831E-1,6.58844E-2,-9.476165E-3,-1.460428E-3,1.6625855E-3,1.8779429E-2,-1.0473251E-2,-2.801733E-2,7.941628E-3,5.878449E-4],"categories":[],"categories_nodes":[],"categories_segments":[],"categories_sizes":[],"default_left":[0,0,0,0,0,0,0,0,0,0,0,0,0,0,0,0,0,0,0,0,0,0,0,0,0],"id":38,"left_children":[1,3,5,7,9,-1,-1,11,-1,13,15,17,-1,19,-1,21,23,-1,-1,-1,-1,-1,-1,-1,-1],"loss_changes":[7.289642E0,6.4034975E-1,4.5944448E0,4.5893013E-1,5.753263E-1,0E0,0E0,3.9304423E-1,0E0,5.0470245E-1,2.5584552E-1,5.1931286E-1,0E0,3.8269645E-1,0E0,8.3610594E-2,3.5931207E-3,0E0,0E0,0E0,0E0,0E0,0E0,0E0,0E0],"parents":[2147483647,0,0,1,1,2,2,3,3,4,4,7,7,9,9,10,10,11,11,13,13,15,15,16,16],"right_children":[2,4,6,8,10,-1,-1,12,-1,14,16,18,-1,20,-1,22,24,-1,-1,-1,-1,-1,-1,-1,-1],"split_conditions":[1E0,1E0,1.0078637E4,1E0,1E0,1.9021841E-3,8.288072E-2,1E0,1.2278176E-2,1E0,4.057093E1,3.9918256E-1,-1.909742E-2,1E0,3.0113548E-2,4.7860962E-1,9.6159E1,-9.476165E-3,-1.460428E-3,1.6625855E-3,1.8779429E-2,-1.0473251E-2,-2.801733E-2,7.941628E-3,5.878449E-4],"split_indices":[27,44,4,21,18,0,0,23,0,24,2,5,0,16,0,5,0,0,0,0,0,0,0,0,0],"split_type":[0,0,0,0,0,0,0,0,0,0,0,0,0,0,0,0,0,0,0,0,0,0,0,0,0],"sum_hessian":[6.52E2,6.24E2,2.8E1,3.87E2,2.37E2,1.2E1,1.6E1,3.72E2,1.5E1,2.19E2,1.8E1,3.54E2,1.8E1,2.13E2,6E0,1.4E1,4E0,1.24E2,2.3E2,2E2,1.3E1,7E0,7E0,3E0,1E0],"tree_param":{"num_deleted":"0","num_feature":"47","num_nodes":"25","size_leaf_vector":"1"}},{"base_weights":[3.9690025E-3,-1.663424E-2,4.4786757E-1,-2.3039322E-2,1.318151E-1,1.7268254E-3,7.5080425E-2,-3.0283904E-2,1.1091072E-1,9.763471E-2,1.7674027E-2,-3.8338106E-2,1.0194166E-1,2.088657E-2,6.7758314E-2,3.0014038E-3,1.04649864E-1,-5.1215966E-3,6.13567E-3,1.613907E-2,4.9642865E-3,8.817455E-3,3.239975E-3,1.096829E-2,1.7093659E-3],"categories":[],"categories_nodes":[],"categories_segments":[],"categories_sizes":[],"default_left":[0,0,0,0,0,0,0,0,0,0,0,0,0,0,0,0,0,0,0,0,0,0,0,0,0],"id":39,"left_children":[1,3,5,7,9,-1,-1,11,13,15,-1,17,19,-1,21,-1,23,-1,-1,-1,-1,-1,-1,-1,-1],"loss_changes":[5.9796247E0,5.973058E-1,3.7699199E0,5.856061E-1,2.266857E-2,0E0,0E0,6.109418E-1,1.1688438E-1,4.923314E-3,0E0,6.938569E-1,9.4588816E-2,0E0,1.3746604E-2,0E0,4.7352165E-3,0E0,0E0,0E0,0E0,0E0,0E0,0E0,0E0],"parents":[2147483647,0,0,1,1,2,2,3,3,4,4,7,7,8,8,9,9,11,11,12,12,14,14,16,16],"right_children":[2,4,6,8,10,-1,-1,12,14,16,-1,18,20,-1,22,-1,24,-1,-1,-1,-1,-1,-1,-1,-1],"split_conditions":[1E0,1E0,1.0078637E4,1E0,1.4112011E0,1.7268254E-3,7.5080425E-2,1E0,1.0094542E4,4.7567567E-1,1.7674027E-2,1E0,1.0374836E4,2.088657E-2,1.5616046E-1,3.0014038E-3,1.0898949E4,-5.1215966E-3,6.13567E-3,1.613907E-2,4.9642865E-3,8.817455E-3,3.239975E-3,1.096829E-2,1.7093659E-3],"split_indices":[27,20,4,12,3,0,0,15,4,5,0,39,4,0,6,0,4,0,0,0,0,0,0,0,0],"split_type":[0,0,0,0,0,0,0,0,0,0,0,0,0,0,0,0,0,0,0,0,0,0,0,0,0],"sum_hessian":[6.52E2,6.24E2,2.8E1,5.99E2,2.5E1,1.2E1,1.6E1,5.69E2,3E1,1.6E1,9E0,5.37E2,3.2E1,8E0,2.2E1,2E0,1.4E1,4.76E2,6.1E1,1.4E1,1.8E1,1.3E1,9E0,1.3E1,1E0],"tree_param":{"num_deleted":"0","num_feature":"47","num_nodes":"25","size_leaf_vector":"1"}},{"base_weights":[3.8234482E-3,-1.483114E-2,4.0573016E-1,-6.7856438E-3,-1.1837786E-1,1.5676646E-3,6.801399E-2,4.619316E-3,-9.2893936E-2,-4.074733E-3,-1.2706299E-2,2.012451E-2,-8.230875E-2,-5.2257027E-2,-1.217712E-1,4.083178E-3,-7.7218986E-3,-1.1108707E-2,-4.741689E-3,-3.953044E-3,-7.375717E-3,-2.4471283E-3,-1.2368775E-2],"categories":[],"categories_nodes":[],"categories_segments":[],"categories_sizes":[],"default_left":[0,0,0,0,0,0,0,0,0,0,0,0,0,0,0,0,0,0,0,0,0,0,0],"id":40,"left_children":[1,3,5,7,9,-1,-1,11,13,-1,-1,15,17,19,21,-1,-1,-1,-1,-1,-1,-1,-1],"loss_changes":[4.901822E0,5.198747E-1,3.0933375E0,5.7100695E-1,2.5162935E-2,0E0,0E0,6.9444436E-1,7.34334E-2,0E0,0E0,8.8402164E-1,7.305467E-2,5.2930415E-3,4.245937E-3,0E0,0E0,0E0,0E0,0E0,0E0,0E0,0E0],"parents":[2147483647,0,0,1,1,2,2,3,3,4,4,7,7,8,8,11,11,12,12,13,13,14,14],"right_children":[2,4,6,8,10,-1,-1,12,14,-1,-1,16,18,20,22,-1,-1,-1,-1,-1,-1,-1,-1],"split_conditions":[1E0,1E0,1.0078637E4,1E0,2.8901733E-3,1.5676646E-3,6.801399E-2,1E0,1E0,-4.074733E-3,-1.2706299E-2,1E0,1.8168936E0,1.5341702E-1,1.3531799E-3,4.083178E-3,-7.7218986E-3,-1.1108707E-2,-4.741689E-3,-3.953044E-3,-7.375717E-3,-2.4471283E-3,-1.2368775E-2],"split_indices":[27,13,4,37,5,0,0,41,19,0,0,40,3,6,5,0,0,0,0,0,0,0,0],"split_type":[0,0,0,0,0,0,0,0,0,0,0,0,0,0,0,0,0,0,0,0,0,0,0],"sum_hessian":[6.52E2,6.24E2,2.8E1,5.8E2,4.4E1,1.2E1,1.6E1,5.13E2,6.7E1,5E0,3.9E1,4.36E2,7.7E1,2.9E1,3.8E1,3.6E2,7.6E1,4.1E1,3.6E1,2E1,9E0,1E0,3.7E1],"tree_param":{"num_deleted":"0","num_feature":"47","num_nodes":"23","size_leaf_vector":"1"}},{"base_weights":[3.4526808E-3,-1.3447278E-2,3.6755687E-1,-6.373462E-3,-1.325095E-1,1.4232929E-3,6.1612476E-2,-1.6890408E-2,7.8992754E-2,-5.6123096E-3,-1.4336981E-1,-2.4670357E-2,9.664446E-2,1.0416995E-1,-5.4074373E-2,-1.174668E-2,-1.999197E-2,-3.4564424E-3,6.588932E-3,1.7132295E-2,4.225667E-3,1.1958151E-2,-1.222229E-2,1.182251E-3,-9.341867E-3],"categories":[],"categories_nodes":[],"categories_segments":[],"categories_sizes":[],"default_left":[0,0,0,0,0,0,0,0,0,0,0,0,0,0,0,0,0,0,0,0,0,0,0,0,0],"id":41,"left_children":[1,3,5,7,9,-1,-1,11,13,-1,15,17,19,21,23,-1,-1,-1,-1,-1,-1,-1,-1,-1,-1],"loss_changes":[4.0230775E0,5.2554566E-1,2.5381553E0,5.3192925E-1,2.0988882E-2,0E0,0E0,4.67881E-1,2.2339961E-1,0E0,2.0460427E-2,4.4490317E-1,1.3085479E-1,2.0651436E-1,2.962377E-2,0E0,0E0,0E0,0E0,0E0,0E0,0E0,0E0,0E0,0E0],"parents":[2147483647,0,0,1,1,2,2,3,3,4,4,7,7,8,8,10,10,11,11,12,12,13,13,14,14],"right_children":[2,4,6,8,10,-1,-1,12,14,-1,16,18,20,22,24,-1,-1,-1,-1,-1,-1,-1,-1,-1,-1],"split_conditions":[1E0,1E0,1.0078637E4,2.0488466E-1,5.2965516E-1,1.4232929E-3,6.1612476E-2,1E0,1E0,-5.6123096E-3,1.5862069E-1,1E0,5.897436E-1,1E0,1.0162443E4,-1.174668E-2,-1.999197E-2,-3.4564424E-3,6.588932E-3,1.7132295E-2,4.225667E-3,1.1958151E-2,-1.222229E-2,1.182251E-3,-9.341867E-3],"split_indices":[27,22,4,6,5,0,0,16,41,0,6,33,5,18,4,0,0,0,0,0,0,0,0,0,0],"split_type":[0,0,0,0,0,0,0,0,0,0,0,0,0,0,0,0,0,0,0,0,0,0,0,0,0],"sum_hessian":[6.52E2,6.24E2,2.8E1,5.9E2,3.4E1,1.2E1,1.6E1,5.26E2,6.4E1,5E0,2.9E1,4.93E2,3.3E1,5.4E1,1E1,2.2E1,7E0,4.45E2,4.8E1,1.3E1,2E1,5.1E1,3E0,4E0,6E0],"tree_param":{"num_deleted":"0","num_feature":"47","num_nodes":"25","size_leaf_vector":"1"}},{"base_weights":[3.1709657E-3,-1.21368775E-2,3.3297202E-1,-1.7632993E-2,1.1516336E-1,1.2915978E-3,5.581342E-2,-2.3798276E-2,9.629748E-2,8.457678E-2,1.5564422E-2,-3.080751E-2,8.760632E-2,1.707306E-2,5.808709E-2,1.0967255E-2,5.604248E-2,-4.1008703E-3,6.119594E-3,1.5541132E-2,3.8231262E-3,7.940401E-3,1.8473307E-3,7.4292864E-3,1.0093689E-3],"categories":[],"categories_nodes":[],"categories_segments":[],"categories_sizes":[],"default_left":[0,0,0,0,0,0,0,0,0,0,0,0,0,0,0,0,0,0,0,0,0,0,0,0,0],"id":42,"left_children":[1,3,5,7,9,-1,-1,11,13,15,-1,17,19,-1,21,-1,23,-1,-1,-1,-1,-1,-1,-1,-1],"loss_changes":[3.3007398E0,4.3931627E-1,2.082662E0,4.237399E-1,1.9028544E-2,0E0,0E0,4.4778958E-1,7.825041E-2,6.0272217E-3,0E0,5.0650835E-1,1.07886165E-1,0E0,1.7110914E-2,0E0,7.6359436E-3,0E0,0E0,0E0,0E0,0E0,0E0,0E0,0E0],"parents":[2147483647,0,0,1,1,2,2,3,3,4,4,7,7,8,8,9,9,11,11,12,12,14,14,16,16],"right_children":[2,4,6,8,10,-1,-1,12,14,16,-1,18,20,-1,22,-1,24,-1,-1,-1,-1,-1,-1,-1,-1],"split_conditions":[1E0,1E0,1.0078637E4,1E0,1.4112011E0,1.2915978E-3,5.581342E-2,1E0,6.9392985E-1,1.5229885E-1,1.5564422E-2,1E0,5.897436E-1,1.707306E-2,1.5616046E-1,1.0967255E-2,1.0564717E4,-4.1008703E-3,6.119594E-3,1.5541132E-2,3.8231262E-3,7.940401E-3,1.8473307E-3,7.4292864E-3,1.0093689E-3],"split_indices":[27,20,4,12,3,0,0,16,3,6,0,33,5,0,6,0,4,0,0,0,0,0,0,0,0],"split_type":[0,0,0,0,0,0,0,0,0,0,0,0,0,0,0,0,0,0,0,0,0,0,0,0,0],"sum_hessian":[6.52E2,6.24E2,2.8E1,5.99E2,2.5E1,1.2E1,1.6E1,5.69E2,3E1,1.6E1,9E0,5.36E2,3.3E1,9E0,2.1E1,7E0,9E0,4.83E2,5.3E1,1.3E1,2E1,1.3E1,8E0,6E0,3E0],"tree_param":{"num_deleted":"0","num_feature":"47","num_nodes":"25","size_leaf_vector":"1"}},{"base_weights":[3.071515E-3,-1.0787122E-2,3.016431E-1,-4.5180344E-3,-1.16336934E-1,1.1725792E-3,5.0560087E-2,3.3341849E-3,-9.986572E-2,-4.8023225E-3,-1.2612177E-1,1.4642795E-2,-7.654033E-2,-3.1051636E-3,-1.07691195E-2,-1.0230222E-2,-1.7883778E-2,3.0331085E-3,-6.660109E-3,-4.010035E-3,-1.0260851E-2],"categories":[],"categories_nodes":[],"categories_segments":[],"categories_sizes":[],"default_left":[0,0,0,0,0,0,0,0,0,0,0,0,0,0,0,0,0,0,0,0,0],"id":43,"left_children":[1,3,5,7,9,-1,-1,11,13,-1,15,17,19,-1,-1,-1,-1,-1,-1,-1,-1],"loss_changes":[2.7052343E0,4.1303745E-1,1.7088671E0,4.4280934E-1,1.7338604E-2,0E0,0E0,4.952093E-1,2.0888627E-2,0E0,1.9374639E-2,6.138174E-1,6.0480207E-2,0E0,0E0,0E0,0E0,0E0,0E0,0E0,0E0],"parents":[2147483647,0,0,1,1,2,2,3,3,4,4,7,7,8,8,10,10,11,11,12,12],"right_children":[2,4,6,8,10,-1,-1,12,14,-1,16,18,20,-1,-1,-1,-1,-1,-1,-1,-1],"split_conditions":[1E0,1E0,1.0078637E4,1E0,5.2965516E-1,1.1725792E-3,5.0560087E-2,1E0,2.8901733E-3,-4.8023225E-3,1.5862069E-1,1E0,1E0,-3.1051636E-3,-1.07691195E-2,-1.0230222E-2,-1.7883778E-2,3.0331085E-3,-6.660109E-3,-4.010035E-3,-1.0260851E-2],"split_indices":[27,22,4,13,5,0,0,37,5,0,6,41,19,0,0,0,0,0,0,0,0],"split_type":[0,0,0,0,0,0,0,0,0,0,0,0,0,0,0,0,0,0,0,0,0],"sum_hessian":[6.52E2,6.24E2,2.8E1,5.9E2,3.4E1,1.2E1,1.6E1,5.46E2,4.4E1,5E0,2.9E1,4.79E2,6.7E1,5E0,3.9E1,2.2E1,7E0,4.02E2,7.7E1,2.9E1,3.8E1],"tree_param":{"num_deleted":"0","num_feature":"47","num_nodes":"21","size_leaf_vector":"1"}},{"base_weights":[2.742633E-3,-9.813648E-3,2.7325755E-1,-2.9228505E-2,2.1878699E-2,1.0641245E-3,4.5800783E-2,-3.490683E-2,1.0497428E-2,3.4479663E-2,-1.251787E-1,-4.1606206E-2,6.424681E-2,2.6816074E-2,2.6384084E-2,-1.809611E-1,6.720428E-2,-4.689519E-3,7.964071E-3,7.3671723E-3,1.3697816E-3,3.5093937E-3,-1.1545245E-2,-8.960438E-3,-2.496977E-2,7.7631E-3,1.2748719E-3],"categories":[],"categories_nodes":[],"categories_segments":[],"categories_sizes":[],"default_left":[0,0,0,0,0,0,0,0,0,0,0,0,0,0,0,0,0,0,0,0,0,0,0,0,0,0,0],"id":44,"left_children":[1,3,5,7,9,-1,-1,11,-1,13,15,17,19,21,-1,23,25,-1,-1,-1,-1,-1,-1,-1,-1,-1,-1],"loss_changes":[2.2207015E0,3.8520348E-1,1.4021606E0,2.9933867E-1,4.453455E-1,0E0,0E0,2.504448E-1,0E0,3.7962523E-1,2.1606147E-1,2.2818011E-1,1.0424927E-2,2.5607502E-1,0E0,7.1819246E-2,1.8492658E-3,0E0,0E0,0E0,0E0,0E0,0E0,0E0,0E0,0E0,0E0],"parents":[2147483647,0,0,1,1,2,2,3,3,4,4,7,7,9,9,10,10,11,11,12,12,13,13,15,15,16,16],"right_children":[2,4,6,8,10,-1,-1,12,-1,14,16,18,20,22,-1,24,26,-1,-1,-1,-1,-1,-1,-1,-1,-1,-1],"split_conditions":[1E0,1E0,1.0078637E4,1E0,1E0,1.0641245E-3,4.5800783E-2,1E0,1.0497428E-2,1E0,4.057093E1,1E0,1.5797317E-1,1E0,2.6384084E-2,4.7860962E-1,9.6159E1,-4.689519E-3,7.964071E-3,7.3671723E-3,1.3697816E-3,3.5093937E-3,-1.1545245E-2,-8.960438E-3,-2.496977E-2,7.7631E-3,1.2748719E-3],"split_indices":[27,44,4,21,18,0,0,38,0,24,2,14,6,22,0,5,0,0,0,0,0,0,0,0,0,0,0],"split_type":[0,0,0,0,0,0,0,0,0,0,0,0,0,0,0,0,0,0,0,0,0,0,0,0,0,0,0],"sum_hessian":[6.52E2,6.24E2,2.8E1,3.87E2,2.37E2,1.2E1,1.6E1,3.72E2,1.5E1,2.19E2,1.8E1,3.49E2,2.3E1,2.13E2,6E0,1.4E1,4E0,3.35E2,1.4E1,1.9E1,4E0,2.02E2,1.1E1,7E0,7E0,3E0,1E0],"tree_param":{"num_deleted":"0","num_feature":"47","num_nodes":"27","size_leaf_vector":"1"}},{"base_weights":[2.5655797E-3,-8.805615E-3,2.4754597E-1,-1.8962405E-3,-9.373588E-2,9.662335E-4,4.1489545E-2,5.4081283E-3,-8.869493E-2,-1.04514696E-1,-2.812481E-2,1.2686602E-2,-9.893254E-2,-3.13886E-3,-9.507351E-3,-1.1602879E-2,-8.211158E-2,-3.2278877E-3,4.7683716E-5,2.5067904E-3,-6.6521815E-3,-3.4404756E-3,-1.0854035E-2,-2.4515153E-3,-9.270259E-3],"categories":[],"categories_nodes":[],"categories_segments":[],"categories_sizes":[],"default_left":[0,0,0,0,0,0,0,0,0,0,0,0,0,0,0,0,0,0,0,0,0,0,0,0,0],"id":45,"left_children":[1,3,5,7,9,-1,-1,11,13,15,17,19,21,-1,-1,-1,23,-1,-1,-1,-1,-1,-1,-1,-1],"loss_changes":[1.8212547E0,3.6658162E-1,1.1504728E0,3.6757126E-1,3.0299425E-2,0E0,0E0,4.0755594E-1,1.3464749E-2,7.90745E-4,9.6589746E-4,4.9299994E-1,1.7964661E-2,0E0,0E0,0E0,8.097462E-3,0E0,0E0,0E0,0E0,0E0,0E0,0E0,0E0],"parents":[2147483647,0,0,1,1,2,2,3,3,4,4,7,7,8,8,9,9,10,10,11,11,12,12,16,16],"right_children":[2,4,6,8,10,-1,-1,12,14,16,18,20,22,-1,-1,-1,24,-1,-1,-1,-1,-1,-1,-1,-1],"split_conditions":[1E0,1E0,1.0078637E4,1E0,9.6102E1,9.662335E-4,4.1489545E-2,1E0,2.8901733E-3,1.4298356E0,2.0470263E-1,1E0,5.2965516E-1,-3.13886E-3,-9.507351E-3,-1.1602879E-2,1.0169305E4,-3.2278877E-3,4.7683716E-5,2.5067904E-3,-6.6521815E-3,-3.4404756E-3,-1.0854035E-2,-2.4515153E-3,-9.270259E-3],"split_indices":[27,25,4,13,0,0,0,22,5,3,6,37,5,0,0,0,4,0,0,0,0,0,0,0,0],"split_type":[0,0,0,0,0,0,0,0,0,0,0,0,0,0,0,0,0,0,0,0,0,0,0,0,0],"sum_hessian":[6.52E2,6.24E2,2.8E1,5.78E2,4.6E1,1.2E1,1.6E1,5.34E2,4.4E1,3.9E1,7E0,5E2,3.4E1,5E0,3.9E1,2.3E1,1.6E1,6E0,1E0,4.33E2,6.7E1,5E0,2.9E1,3E0,1.3E1],"tree_param":{"num_deleted":"0","num_feature":"47","num_nodes":"25","size_leaf_vector":"1"}},{"base_weights":[2.2837594E-3,-1.2817101E-2,1.5453339E-1,-1.8687056E-2,8.7716304E-2,3.345995E-1,8.554268E-2,-2.4174191E-2,9.5573135E-2,1.3290557E-1,4.7423914E-2,3.7081365E-2,5.4066977E-3,1.619437E-1,6.921768E-2,-3.0833723E-2,7.545045E-2,6.7649394E-2,1.33486185E-2,1.5407562E-2,8.670044E-3,6.513625E-3,7.7547347E-3,6.6986084E-3,2.6622519E-2,4.2946126E-2,1.3848343E-1,-4.1674385E-3,4.729671E-3,1.3257109E-2,3.377715E-3,8.877277E-3,4.3985746E-3,2.271881E-3,-1.9770304E-3,8.163771E-3,1.4765846E-3,1.5281508E-2,4.749298E-4],"categories":[],"categories_nodes":[],"categories_segments":[],"categories_sizes":[],"default_left":[0,0,0,0,0,0,0,0,0,0,0,0,0,0,0,0,0,0,0,0,0,0,0,0,0,0,0,0,0,0,0,0,0,0,0,0,0,0,0],"id":46,"left_children":[1,3,5,7,9,11,13,15,17,19,21,-1,-1,23,25,27,29,31,-1,-1,-1,-1,33,-1,-1,35,37,-1,-1,-1,-1,-1,-1,-1,-1,-1,-1,-1,-1],"loss_changes":[1.5032932E0,3.5276452E-1,7.043277E-1,3.5528937E-1,5.3783E-2,1.4249921E-1,4.3669462E-2,3.592644E-1,1.8495277E-2,1.314044E-3,1.2844924E-2,0E0,0E0,5.1482856E-2,6.320201E-2,4.2969874E-1,7.645592E-2,4.5928136E-3,0E0,0E0,0E0,0E0,3.3323653E-3,0E0,0E0,3.0414388E-2,1.844053E-2,0E0,0E0,0E0,0E0,0E0,0E0,0E0,0E0,0E0,0E0,0E0,0E0],"parents":[2147483647,0,0,1,1,2,2,3,3,4,4,5,5,6,6,7,7,8,8,9,9,10,10,13,13,14,14,15,15,16,16,17,17,22,22,25,25,26,26],"right_children":[2,4,6,8,10,12,14,16,18,20,22,-1,-1,24,26,28,30,32,-1,-1,-1,-1,34,-1,-1,36,38,-1,-1,-1,-1,-1,-1,-1,-1,-1,-1,-1,-1],"split_conditions":[1E0,1E0,1.3956834E-1,1E0,1.0374836E4,1E0,1.4586255E-1,1E0,1.4112011E0,2.106703E-1,1.5181059E-1,3.7081365E-2,5.4066977E-3,9.1106E1,2.1525885E-1,1E0,5.897436E-1,1.5229885E-1,1.33486185E-2,1.5407562E-2,8.670044E-3,6.513625E-3,1.0758222E4,6.6986084E-3,2.6622519E-2,1.6761364E-1,5.3333336E-1,-4.1674385E-3,4.729671E-3,1.3257109E-2,3.377715E-3,8.877277E-3,4.3985746E-3,2.271881E-3,-1.9770304E-3,8.163771E-3,1.4765846E-3,1.5281508E-2,4.749298E-4],"split_indices":[42,15,6,20,4,12,6,16,3,6,6,0,0,0,6,39,5,6,0,0,0,0,4,0,0,6,5,0,0,0,0,0,0,0,0,0,0,0,0],"split_type":[0,0,0,0,0,0,0,0,0,0,0,0,0,0,0,0,0,0,0,0,0,0,0,0,0,0,0,0,0,0,0,0,0,0,0,0,0,0,0],"sum_hessian":[6.52E2,5.94E2,5.8E1,5.62E2,3.2E1,1.5E1,4.3E1,5.37E2,2.5E1,1.4E1,1.8E1,1.3E1,2E0,6E0,3.7E1,5.04E2,3.3E1,1.6E1,9E0,8E0,6E0,1.2E1,6E0,4E0,2E0,2.8E1,9E0,4.43E2,6.1E1,1.3E1,2E1,7E0,9E0,4E0,2E0,1.1E1,1.7E1,8E0,1E0],"tree_param":{"num_deleted":"0","num_feature":"47","num_nodes":"39","size_leaf_vector":"1"}},{"base_weights":[2.3232265E-3,-7.081799E-3,2.0493764E-1,-1.0815688E-3,-8.084886E-2,7.479154E-4,3.4388017E-2,7.6774657E-3,-5.743995E-2,-9.0584375E-2,-2.2065163E-2,1.58857E-2,-7.603472E-2,-8.194715E-2,-2.8068542E-2,-1.0091591E-1,-7.067019E-2,-2.594212E-3,2.5367737E-4,2.8323007E-3,-5.586243E-3,-3.2271387E-3,-8.324713E-3,-3.1490326E-3,-1.3090442E-2,-4.3324893E-3,3.4297063E-4,-1.1942222E-2,-7.916695E-3,-1.955414E-3,-8.02269E-3],"categories":[],"categories_nodes":[],"categories_segments":[],"categories_sizes":[],"default_left":[0,0,0,0,0,0,0,0,0,0,0,0,0,0,0,0,0,0,0,0,0,0,0,0,0,0,0,0,0,0,0],"id":47,"left_children":[1,3,5,7,9,-1,-1,11,13,15,17,19,21,23,25,27,29,-1,-1,-1,-1,-1,-1,-1,-1,-1,-1,-1,-1,-1,-1],"loss_changes":[1.245804E0,2.7654967E-1,7.93054E-1,2.8626144E-1,2.4898857E-2,0E0,0E0,3.4614664E-1,5.3845108E-2,1.0980368E-3,8.288552E-4,4.1028005E-1,1.1517286E-2,9.9627376E-2,1.7928874E-2,2.0554662E-4,6.735757E-3,0E0,0E0,0E0,0E0,0E0,0E0,0E0,0E0,0E0,0E0,0E0,0E0,0E0,0E0],"parents":[2147483647,0,0,1,1,2,2,3,3,4,4,7,7,8,8,9,9,10,10,11,11,12,12,13,13,14,14,15,15,16,16],"right_children":[2,4,6,8,10,-1,-1,12,14,16,18,20,22,24,26,28,30,-1,-1,-1,-1,-1,-1,-1,-1,-1,-1,-1,-1,-1,-1],"split_conditions":[1E0,1E0,1.0078637E4,1E0,9.6102E1,7.479154E-4,3.4388017E-2,1E0,1.8168936E0,1.4298356E0,2.0470263E-1,1E0,3.1019278E1,1E0,1E0,5E0,1.0169305E4,-2.594212E-3,2.5367737E-4,2.8323007E-3,-5.586243E-3,-3.2271387E-3,-8.324713E-3,-3.1490326E-3,-1.3090442E-2,-4.3324893E-3,3.4297063E-4,-1.1942222E-2,-7.916695E-3,-1.955414E-3,-8.02269E-3],"split_indices":[27,25,4,41,0,0,0,13,3,3,6,37,2,23,23,1,4,0,0,0,0,0,0,0,0,0,0,0,0,0,0],"split_type":[0,0,0,0,0,0,0,0,0,0,0,0,0,0,0,0,0,0,0,0,0,0,0,0,0,0,0,0,0,0,0],"sum_hessian":[6.52E2,6.24E2,2.8E1,5.78E2,4.6E1,1.2E1,1.6E1,5.01E2,7.7E1,3.9E1,7E0,4.57E2,4.4E1,4.1E1,3.6E1,2.3E1,1.6E1,6E0,1E0,3.9E2,6.7E1,7E0,3.7E1,2.1E1,2E1,2.4E1,1.2E1,1E1,1.3E1,3E0,1.3E1],"tree_param":{"num_deleted":"0","num_feature":"47","num_nodes":"31","size_leaf_vector":"1"}},{"base_weights":[2.0434977E-3,-1.0635812E-2,1.2987648E-1,-1.5761638E-2,7.713618E-2,2.754984E-1,7.3971316E-2,-2.0568762E-2,8.431508E-2,1.1858114E-1,4.0356684E-2,3.0444665E-2,4.8573813E-3,1.3906424E-1,6.00339E-2,-2.8225802E-2,4.85837E-2,5.8998108E-2,1.1892243E-2,1.3786656E-2,7.6845447E-3,5.267639E-2,-4.673767E-3,5.9362794E-3,2.2554524E-2,3.5950758E-2,1.2387161E-1,-3.4243686E-3,8.387299E-3,-2.5509645E-3,7.5154114E-3,7.852554E-3,3.747635E-3,5.6509166E-3,1.8508912E-3,1.2550354E-3,-2.0339966E-3,6.8929675E-3,1.1967553E-3,1.3671535E-2,4.1389465E-4],"categories":[],"categories_nodes":[],"categories_segments":[],"categories_sizes":[],"default_left":[0,0,0,0,0,0,0,0,0,0,0,0,0,0,0,0,0,0,0,0,0,0,0,0,0,0,0,0,0,0,0,0,0,0,0,0,0,0,0,0,0],"id":48,"left_children":[1,3,5,7,9,11,13,15,17,19,21,-1,-1,23,25,27,29,31,-1,-1,-1,33,35,-1,-1,37,39,-1,-1,-1,-1,-1,-1,-1,-1,-1,-1,-1,-1,-1,-1],"loss_changes":[1.0597858E0,2.6890865E-1,4.5994103E-1,2.72583E-1,4.5517176E-2,9.031701E-2,3.1569436E-2,2.8624403E-1,1.5763775E-2,1.4789402E-3,1.0786677E-2,0E0,0E0,3.4859613E-2,5.3968385E-2,3.3005184E-1,1.0822645E-1,4.2016506E-3,0E0,0E0,0E0,9.1841817E-4,1.6044562E-3,0E0,0E0,2.2112343E-2,1.4812306E-2,0E0,0E0,0E0,0E0,0E0,0E0,0E0,0E0,0E0,0E0,0E0,0E0,0E0,0E0],"parents":[2147483647,0,0,1,1,2,2,3,3,4,4,5,5,6,6,7,7,8,8,9,9,10,10,13,13,14,14,15,15,16,16,17,17,21,21,22,22,25,25,26,26],"right_children":[2,4,6,8,10,12,14,16,18,20,22,-1,-1,24,26,28,30,32,-1,-1,-1,34,36,-1,-1,38,40,-1,-1,-1,-1,-1,-1,-1,-1,-1,-1,-1,-1,-1,-1],"split_conditions":[1E0,1E0,1.3956834E-1,1E0,1.0374836E4,1E0,1.4586255E-1,1E0,1.4112011E0,2.106703E-1,1.5751445E-1,3.0444665E-2,4.8573813E-3,9.1106E1,2.1525885E-1,1E0,1.2643678E-1,1.5229885E-1,1.1892243E-2,1.3786656E-2,7.6845447E-3,1.5181059E-1,7E0,5.9362794E-3,2.2554524E-2,1.6761364E-1,5.3333336E-1,-3.4243686E-3,8.387299E-3,-2.5509645E-3,7.5154114E-3,7.852554E-3,3.747635E-3,5.6509166E-3,1.8508912E-3,1.2550354E-3,-2.0339966E-3,6.8929675E-3,1.1967553E-3,1.3671535E-2,4.1389465E-4],"split_indices":[42,15,6,20,4,12,6,33,3,6,6,0,0,0,6,21,6,6,0,0,0,6,1,0,0,6,5,0,0,0,0,0,0,0,0,0,0,0,0,0,0],"split_type":[0,0,0,0,0,0,0,0,0,0,0,0,0,0,0,0,0,0,0,0,0,0,0,0,0,0,0,0,0,0,0,0,0,0,0,0,0,0,0,0,0],"sum_hessian":[6.52E2,5.94E2,5.8E1,5.62E2,3.2E1,1.5E1,4.3E1,5.37E2,2.5E1,1.4E1,1.8E1,1.3E1,2E0,6E0,3.7E1,4.84E2,5.3E1,1.6E1,9E0,8E0,6E0,1.4E1,4E0,4E0,2E0,2.8E1,9E0,4.6E2,2.4E1,1.4E1,3.9E1,7E0,9E0,1.2E1,2E0,2E0,2E0,1.1E1,1.7E1,8E0,1E0],"tree_param":{"num_deleted":"0","num_feature":"47","num_nodes":"41","size_leaf_vector":"1"}},{"base_weights":[2.0661638E-3,-9.467668E-3,1.1834691E-1,-1.5795186E-2,4.9388755E-2,2.2305089E-1,5.4614417E-2,-2.1470869E-2,6.896995E-2,3.0259196E-2,1.0734885E-1,2.8112793E-2,5.8438983E-3,3.263513E-2,1.1289291E-1,-2.6748467E-2,7.678751E-2,1.2081092E-2,3.1125024E-2,4.4115704E-2,2.0270756E-2,1.2638283E-2,7.026018E-3,6.261381E-2,1.0836284E-2,1.2456259E-2,3.9329528E-4,-3.6362696E-3,3.8656543E-3,5.3782295E-3,1.08217625E-2,4.0134005E-3,2.2493803E-3,2.6842118E-3,5.2667796E-3,9.808467E-4,2.7504445E-3,1.7494202E-2,3.6498331E-3,3.1489057E-3,6.286621E-4],"categories":[],"categories_nodes":[],"categories_segments":[],"categories_sizes":[],"default_left":[0,0,0,0,0,0,0,0,0,0,0,0,0,0,0,0,0,0,0,0,0,0,0,0,0,0,0,0,0,0,0,0,0,0,0,0,0,0,0,0,0],"id":49,"left_children":[1,3,5,7,9,11,13,15,17,19,21,-1,-1,23,25,27,29,-1,31,33,35,-1,-1,37,39,-1,-1,-1,-1,-1,-1,-1,-1,-1,-1,-1,-1,-1,-1,-1,-1],"loss_changes":[8.768997E-1,2.223671E-1,3.8152796E-1,2.6031262E-1,6.1059266E-2,1.9389486E-1,4.4990696E-2,2.639309E-1,6.294496E-2,5.33396E-3,1.0035485E-3,0E0,0E0,1.8273013E-2,1.222536E-2,3.0323866E-1,1.2979284E-2,0E0,7.301625E-4,1.2453385E-3,1.8492909E-3,0E0,0E0,2.8816964E-2,1.4933767E-3,0E0,0E0,0E0,0E0,0E0,0E0,0E0,0E0,0E0,0E0,0E0,0E0,0E0,0E0,0E0,0E0],"parents":[2147483647,0,0,1,1,2,2,3,3,4,4,5,5,6,6,7,7,8,8,9,9,10,10,13,13,14,14,15,15,16,16,18,18,19,19,20,20,23,23,24,24],"right_children":[2,4,6,8,10,12,14,16,18,20,22,-1,-1,24,26,28,30,-1,32,34,36,-1,-1,38,40,-1,-1,-1,-1,-1,-1,-1,-1,-1,-1,-1,-1,-1,-1,-1,-1],"split_conditions":[1E0,1E0,1.4586255E-1,1E0,1.8766756E-1,1E0,2.1525885E-1,1E0,5.897436E-1,4.017195E1,2.106703E-1,2.8112793E-2,5.8438983E-3,1.6761364E-1,5.3333336E-1,1E0,1.4112011E0,1.2081092E-2,4.017195E1,1E0,9.2568E1,1.2638283E-2,7.026018E-3,5.6345886E-1,9.2491E1,1.2456259E-2,3.9329528E-4,-3.6362696E-3,3.8656543E-3,5.3782295E-3,1.08217625E-2,4.0134005E-3,2.2493803E-3,2.6842118E-3,5.2667796E-3,9.808467E-4,2.7504445E-3,1.7494202E-2,3.6498331E-3,3.1489057E-3,6.286621E-4],"split_indices":[42,34,6,16,6,12,6,20,5,2,6,0,0,6,5,39,3,0,2,15,0,0,0,5,0,0,0,0,0,0,0,0,0,0,0,0,0,0,0,0,0],"split_type":[0,0,0,0,0,0,0,0,0,0,0,0,0,0,0,0,0,0,0,0,0,0,0,0,0,0,0,0,0,0,0,0,0,0,0,0,0,0,0,0,0],"sum_hessian":[6.52E2,5.94E2,5.8E1,5.37E2,5.7E1,2.1E1,3.7E1,5.04E2,3.3E1,4.4E1,1.3E1,1.5E1,6E0,2.8E1,9E0,4.79E2,2.5E1,1.3E1,2E1,1.7E1,2.7E1,7E0,6E0,1.1E1,1.7E1,8E0,1E0,4.18E2,6.1E1,1.6E1,9E0,8E0,1.2E1,7E0,1E1,1.2E1,1.5E1,1E0,1E1,2E0,1.5E1],"tree_param":{"num_deleted":"0","num_feature":"47","num_nodes":"41","size_leaf_vector":"1"}},{"base_weights":[2.0724263E-3,-8.408042E-3,1.0773016E-1,-2.2975266E-2,1.4974402E-2,2.022934E-1,5.014801E-2,-1.7685702E-2,-1.1892701E-2,8.088013E-3,2.3221588E-2,2.5477791E-2,5.3429743E-3,3.0233186E-2,1.028862E-1,-2.203465E-2,7.420397E-2,1.8844306E-2,-1.0839242E-1,5.8116276E-2,9.964837E-3,1.1348809E-2,3.7345887E-4,-5.166302E-3,-5.3954014E-4,7.671865E-3,1.8241883E-3,1.0546049E-3,1.3130297E-2,-1.5963083E-2,6.7001344E-3,1.661911E-2,3.3183012E-3,2.9388429E-3,5.7001115E-4],"categories":[],"categories_nodes":[],"categories_segments":[],"categories_sizes":[],"default_left":[0,0,0,0,0,0,0,0,0,0,0,0,0,0,0,0,0,0,0,0,0,0,0,0,0,0,0,0,0,0,0,0,0,0,0],"id":50,"left_children":[1,3,5,7,9,11,13,15,-1,17,-1,-1,-1,19,21,23,25,27,29,31,33,-1,-1,-1,-1,-1,-1,-1,-1,-1,-1,-1,-1,-1,-1],"loss_changes":[7.240004E-1,2.0301135E-1,3.111195E-1,1.8416497E-1,3.40708E-1,1.5827411E-1,3.679975E-2,1.4110367E-1,0E0,2.8143874E-1,0E0,0E0,0E0,1.5810067E-2,1.0088116E-2,1.6438119E-1,8.521378E-4,1.8992352E-1,1.8144658E-1,2.6821177E-2,1.3235357E-3,0E0,0E0,0E0,0E0,0E0,0E0,0E0,0E0,0E0,0E0,0E0,0E0,0E0,0E0],"parents":[2147483647,0,0,1,1,2,2,3,3,4,4,5,5,6,6,7,7,9,9,13,13,14,14,15,15,16,16,17,17,18,18,19,19,20,20],"right_children":[2,4,6,8,10,12,14,16,-1,18,-1,-1,-1,20,22,24,26,28,30,32,34,-1,-1,-1,-1,-1,-1,-1,-1,-1,-1,-1,-1,-1,-1],"split_conditions":[1E0,1E0,1.4586255E-1,1E0,1E0,1E0,2.1525885E-1,1E0,-1.1892701E-2,1E0,2.3221588E-2,2.5477791E-2,5.3429743E-3,1.6761364E-1,5.3333336E-1,3.4687954E-1,1.0071942E-1,1E0,4.057093E1,5.6345886E-1,9.2491E1,1.1348809E-2,3.7345887E-4,-5.166302E-3,-5.3954014E-4,7.671865E-3,1.8241883E-3,1.0546049E-3,1.3130297E-2,-1.5963083E-2,6.7001344E-3,1.661911E-2,3.3183012E-3,2.9388429E-3,5.7001115E-4],"split_indices":[42,44,6,23,24,12,6,21,0,18,0,0,0,6,5,5,5,28,2,5,0,0,0,0,0,0,0,0,0,0,0,0,0,0,0],"split_type":[0,0,0,0,0,0,0,0,0,0,0,0,0,0,0,0,0,0,0,0,0,0,0,0,0,0,0,0,0,0,0,0,0,0,0],"sum_hessian":[6.52E2,5.94E2,5.8E1,3.66E2,2.28E2,2.1E1,3.7E1,3.48E2,1.8E1,2.22E2,6E0,1.5E1,6E0,2.8E1,9E0,3.33E2,1.5E1,2.04E2,1.8E1,1.1E1,1.7E1,8E0,1E0,1.19E2,2.14E2,1.4E1,1E0,1.91E2,1.3E1,1.4E1,4E0,1E0,1E1,2E0,1.5E1],"tree_param":{"num_deleted":"0","num_feature":"47","num_nodes":"35","size_leaf_vector":"1"}},{"base_weights":[1.997663E-3,-7.532559E-3,9.807367E-2,-2.9193517E-3,-8.1260465E-2,1.8346266E-1,4.605705E-2,2.8929922E-3,-6.654569E-2,-2.5414785E-2,-8.972092E-2,2.3088837E-2,4.8852107E-3,2.8017242E-2,9.3766786E-2,8.373044E-3,-6.4206444E-2,-7.521305E-2,-1.4890671E-2,-1.5296937E-4,-2.9885864E-3,-6.9090473E-3,-1.3781833E-2,5.3965885E-2,9.161632E-3,1.0339695E-2,3.5476685E-4,1.8280316E-3,-4.2540818E-3,-2.0175935E-3,-6.731521E-3,-6.670495E-3,-1.0090733E-2,-1.8565586E-3,5.41687E-4,1.578827E-2,3.0165934E-3,2.7430216E-3,5.1636697E-4],"categories":[],"categories_nodes":[],"categories_segments":[],"categories_sizes":[],"default_left":[0,0,0,0,0,0,0,0,0,0,0,0,0,0,0,0,0,0,0,0,0,0,0,0,0,0,0,0,0,0,0,0,0,0,0,0,0,0,0],"id":51,"left_children":[1,3,5,7,9,11,13,15,17,19,21,-1,-1,23,25,27,29,31,33,-1,-1,-1,-1,35,37,-1,-1,-1,-1,-1,-1,-1,-1,-1,-1,-1,-1,-1,-1],"loss_changes":[5.9864223E-1,2.0213541E-1,2.536074E-1,2.0766051E-1,1.4256567E-2,1.2916863E-1,3.0078545E-2,1.8990742E-1,1.992254E-2,5.9503666E-4,2.0246193E-2,0E0,0E0,1.3694633E-2,8.321434E-3,2.4138477E-1,3.9802045E-3,2.0133555E-3,6.975953E-4,0E0,0E0,0E0,0E0,2.4915904E-2,1.1730273E-3,0E0,0E0,0E0,0E0,0E0,0E0,0E0,0E0,0E0,0E0,0E0,0E0,0E0,0E0],"parents":[2147483647,0,0,1,1,2,2,3,3,4,4,5,5,6,6,7,7,8,8,9,9,10,10,13,13,14,14,15,15,16,16,17,17,18,18,23,23,24,24],"right_children":[2,4,6,8,10,12,14,16,18,20,22,-1,-1,24,26,28,30,32,34,-1,-1,-1,-1,36,38,-1,-1,-1,-1,-1,-1,-1,-1,-1,-1,-1,-1,-1,-1],"split_conditions":[1E0,1E0,1.4586255E-1,1E0,5.2965516E-1,1E0,2.1525885E-1,1E0,9.6102E1,1.0057282E4,1.5862069E-1,2.3088837E-2,4.8852107E-3,1.6761364E-1,5.3333336E-1,1E0,4.297994E-3,1E0,2.0470263E-1,-1.5296937E-4,-2.9885864E-3,-6.9090473E-3,-1.3781833E-2,5.6345886E-1,9.2491E1,1.0339695E-2,3.5476685E-4,1.8280316E-3,-4.2540818E-3,-2.0175935E-3,-6.731521E-3,-6.670495E-3,-1.0090733E-2,-1.8565586E-3,5.41687E-4,1.578827E-2,3.0165934E-3,2.7430216E-3,5.1636697E-4],"split_indices":[42,22,6,25,5,12,6,19,0,4,6,0,0,6,5,41,5,7,6,0,0,0,0,5,0,0,0,0,0,0,0,0,0,0,0,0,0,0,0],"split_type":[0,0,0,0,0,0,0,0,0,0,0,0,0,0,0,0,0,0,0,0,0,0,0,0,0,0,0,0,0,0,0,0,0,0,0,0,0,0,0],"sum_hessian":[6.52E2,5.94E2,5.8E1,5.6E2,3.4E1,2.1E1,3.7E1,5.14E2,4.6E1,5E0,2.9E1,1.5E1,6E0,2.8E1,9E0,4.76E2,3.8E1,3.9E1,7E0,1E0,4E0,2.2E1,7E0,1.1E1,1.7E1,8E0,1E0,3.99E2,7.7E1,3E0,3.5E1,3.2E1,7E0,6E0,1E0,1E0,1E1,2E0,1.5E1],"tree_param":{"num_deleted":"0","num_feature":"47","num_nodes":"39","size_leaf_vector":"1"}},{"base_weights":[1.8080263E-3,-6.8703275E-3,8.929637E-2,-1.0910088E-2,6.2258635E-2,1.6639017E-1,4.2313226E-2,-1.6849354E-2,4.5385007E-2,9.640249E-2,3.202619E-2,2.0924473E-2,4.4666836E-3,2.5975721E-2,8.546066E-2,-2.2345392E-2,6.075242E-2,-2.093811E-2,6.9121554E-2,1.1263105E-2,6.17654E-3,4.319712E-2,-7.891846E-3,5.0138474E-2,8.424123E-3,9.420777E-3,3.3683778E-4,-2.7471778E-3,6.7634294E-3,1.0691834E-2,2.7082171E-3,-3.0384064E-3,-1.3176728E-3,7.3553384E-3,-1.0055542E-3,4.6535786E-3,1.4330547E-3,7.344564E-4,-2.0497642E-3,1.4998627E-2,2.7426286E-3,2.559916E-3,4.6772958E-4],"categories":[],"categories_nodes":[],"categories_segments":[],"categories_sizes":[],"default_left":[0,0,0,0,0,0,0,0,0,0,0,0,0,0,0,0,0,0,0,0,0,0,0,0,0,0,0,0,0,0,0,0,0,0,0,0,0,0,0,0,0,0,0],"id":52,"left_children":[1,3,5,7,9,11,13,15,17,19,21,-1,-1,23,25,27,29,31,33,-1,-1,35,37,39,41,-1,-1,-1,-1,-1,-1,-1,-1,-1,-1,-1,-1,-1,-1,-1,-1,-1,-1],"loss_changes":[4.964069E-1,1.6684161E-1,2.0666394E-1,1.8900461E-1,3.0976921E-2,1.0541451E-1,2.4567112E-2,2.1887377E-1,8.6458474E-2,1.4749467E-3,8.813417E-3,0E0,0E0,1.1876378E-2,6.8633705E-3,2.2188409E-1,4.9954623E-2,6.9934176E-4,1.4775619E-2,0E0,0E0,7.787552E-4,1.1108816E-3,2.3099577E-2,1.0385993E-3,0E0,0E0,0E0,0E0,0E0,0E0,0E0,0E0,0E0,0E0,0E0,0E0,0E0,0E0,0E0,0E0,0E0,0E0],"parents":[2147483647,0,0,1,1,2,2,3,3,4,4,5,5,6,6,7,7,8,8,9,9,10,10,13,13,14,14,15,15,16,16,17,17,18,18,21,21,22,22,23,23,24,24],"right_children":[2,4,6,8,10,12,14,16,18,20,22,-1,-1,24,26,28,30,32,34,-1,-1,36,38,40,42,-1,-1,-1,-1,-1,-1,-1,-1,-1,-1,-1,-1,-1,-1,-1,-1,-1,-1],"split_conditions":[1E0,1E0,1.4586255E-1,1E0,1.0374836E4,1E0,2.1525885E-1,1E0,1.2643678E-1,2.106703E-1,1.5751445E-1,2.0924473E-2,4.4666836E-3,1.6761364E-1,5.3333336E-1,1E0,5.897436E-1,7.252259E-1,1E0,1.1263105E-2,6.17654E-3,1.5181059E-1,7E0,5.6345886E-1,9.2491E1,9.420777E-3,3.3683778E-4,-2.7471778E-3,6.7634294E-3,1.0691834E-2,2.7082171E-3,-3.0384064E-3,-1.3176728E-3,7.3553384E-3,-1.0055542E-3,4.6535786E-3,1.4330547E-3,7.344564E-4,-2.0497642E-3,1.4998627E-2,2.7426286E-3,2.559916E-3,4.6772958E-4],"split_indices":[42,15,6,33,4,12,6,16,6,6,6,0,0,6,5,20,5,3,7,0,0,6,1,5,0,0,0,0,0,0,0,0,0,0,0,0,0,0,0,0,0,0,0],"split_type":[0,0,0,0,0,0,0,0,0,0,0,0,0,0,0,0,0,0,0,0,0,0,0,0,0,0,0,0,0,0,0,0,0,0,0,0,0,0,0,0,0,0,0],"sum_hessian":[6.52E2,5.94E2,5.8E1,5.62E2,3.2E1,2.1E1,3.7E1,5.09E2,5.3E1,1.4E1,1.8E1,1.5E1,6E0,2.8E1,9E0,4.76E2,3.3E1,1.4E1,3.9E1,8E0,6E0,1.4E1,4E0,1.1E1,1.7E1,8E0,1E0,4.51E2,2.5E1,1.3E1,2E1,5E0,9E0,3.7E1,2E0,1.2E1,2E0,2E0,2E0,1E0,1E1,2E0,1.5E1],"tree_param":{"num_deleted":"0","num_feature":"47","num_nodes":"43","size_leaf_vector":"1"}},{"base_weights":[1.7766558E-3,-6.113517E-3,8.131693E-2,-2.0453576E-3,-7.114563E-2,1.5090942E-1,3.888662E-2,3.027655E-3,-5.7589106E-2,-2.110672E-2,-7.878189E-2,1.8963242E-2,4.084124E-3,2.4096522E-2,7.788925E-2,8.869519E-3,-5.8184475E-2,-6.543426E-2,-1.1164665E-2,-2.8049469E-3,-4.814148E-3,-5.6926184E-3,-1.1680069E-2,4.6606064E-2,7.751465E-3,8.583239E-3,3.200531E-4,1.765593E-3,-3.562683E-3,-1.6841888E-3,-6.2931255E-3,-7.4672378E-3,-4.8543145E-3,-2.9945374E-4,-2.3783366E-3,-8.010865E-6,-7.141113E-4,1.4248657E-2,2.493633E-3,2.3890177E-3,4.2409898E-4],"categories":[],"categories_nodes":[],"categories_segments":[],"categories_sizes":[],"default_left":[0,0,0,0,0,0,0,0,0,0,0,0,0,0,0,0,0,0,0,0,0,0,0,0,0,0,0,0,0,0,0,0,0,0,0,0,0,0,0,0,0],"id":53,"left_children":[1,3,5,7,9,11,13,15,17,19,21,-1,-1,23,25,27,29,31,33,-1,35,-1,-1,37,39,-1,-1,-1,-1,-1,-1,-1,-1,-1,-1,-1,-1,-1,-1,-1,-1],"loss_changes":[4.1031116E-1,1.5726829E-1,1.6834867E-1,1.5824965E-1,1.1711001E-2,8.602297E-2,2.0043548E-2,1.8467645E-1,1.6387194E-2,5.43657E-4,1.8278837E-2,0E0,0E0,1.0308405E-2,5.657915E-3,1.8477267E-1,7.7710897E-3,2.6168525E-3,7.53551E-4,0E0,3.247577E-5,0E0,0E0,2.1379372E-2,9.184638E-4,0E0,0E0,0E0,0E0,0E0,0E0,0E0,0E0,0E0,0E0,0E0,0E0,0E0,0E0,0E0,0E0],"parents":[2147483647,0,0,1,1,2,2,3,3,4,4,5,5,6,6,7,7,8,8,9,9,10,10,13,13,14,14,15,15,16,16,17,17,18,18,20,20,23,23,24,24],"right_children":[2,4,6,8,10,12,14,16,18,20,22,-1,-1,24,26,28,30,32,34,-1,36,-1,-1,38,40,-1,-1,-1,-1,-1,-1,-1,-1,-1,-1,-1,-1,-1,-1,-1,-1],"split_conditions":[1E0,1E0,1.4586255E-1,1E0,5.2965516E-1,1E0,2.1525885E-1,1E0,9.6102E1,6E0,1.5341702E-1,1.8963242E-2,4.084124E-3,1.6761364E-1,5.3333336E-1,1E0,2.8901733E-3,1.4298356E0,4.897681E-1,-2.8049469E-3,9.612E1,-5.6926184E-3,-1.1680069E-2,5.6345886E-1,9.2491E1,8.583239E-3,3.200531E-4,1.765593E-3,-3.562683E-3,-1.6841888E-3,-6.2931255E-3,-7.4672378E-3,-4.8543145E-3,-2.9945374E-4,-2.3783366E-3,-8.010865E-6,-7.141113E-4,1.4248657E-2,2.493633E-3,2.3890177E-3,4.2409898E-4],"split_indices":[42,22,6,25,5,12,6,13,0,1,6,0,0,6,5,41,5,3,5,0,0,0,0,5,0,0,0,0,0,0,0,0,0,0,0,0,0,0,0,0,0],"split_type":[0,0,0,0,0,0,0,0,0,0,0,0,0,0,0,0,0,0,0,0,0,0,0,0,0,0,0,0,0,0,0,0,0,0,0,0,0,0,0,0,0],"sum_hessian":[6.52E2,5.94E2,5.8E1,5.6E2,3.4E1,2.1E1,3.7E1,5.14E2,4.6E1,5E0,2.9E1,1.5E1,6E0,2.8E1,9E0,4.7E2,4.4E1,3.9E1,7E0,3E0,2E0,2E1,9E0,1.1E1,1.7E1,8E0,1E0,3.93E2,7.7E1,5E0,3.9E1,2.3E1,1.6E1,5E0,2E0,1E0,1E0,1E0,1E1,2E0,1.5E1],"tree_param":{"num_deleted":"0","num_feature":"47","num_nodes":"41","size_leaf_vector":"1"}},{"base_weights":[1.6098139E-3,-5.5766897E-3,7.4056596E-2,-1.7743498E-2,1.3946434E-2,1.3686441E-1,3.574532E-2,-1.33425435E-2,-9.764822E-3,7.680029E-3,2.1158382E-2,1.7185116E-2,3.7342615E-3,2.2359125E-2,7.0990756E-2,-1.7131234E-2,6.6580296E-2,1.7515564E-2,-9.884443E-2,4.3339413E-2,7.130093E-3,7.8203E-3,3.040314E-4,-4.364198E-3,-2.2548587E-4,6.8764756E-3,1.6906739E-3,1.0073702E-3,1.1832428E-2,-1.6857147E-3,-2.094698E-2,1.3536072E-2,2.266832E-3,2.229818E-3,3.8404466E-4],"categories":[],"categories_nodes":[],"categories_segments":[],"categories_sizes":[],"default_left":[0,0,0,0,0,0,0,0,0,0,0,0,0,0,0,0,0,0,0,0,0,0,0,0,0,0,0,0,0,0,0,0,0,0,0],"id":54,"left_children":[1,3,5,7,9,11,13,15,-1,17,-1,-1,-1,19,21,23,25,27,29,31,33,-1,-1,-1,-1,-1,-1,-1,-1,-1,-1,-1,-1,-1,-1],"loss_changes":[3.403903E-1,1.4158024E-1,1.3707629E-1,1.2775525E-1,2.8198597E-1,7.018542E-2,1.6341198E-2,1.0681884E-1,0E0,2.3537399E-1,0E0,0E0,0E0,8.956759E-3,4.662987E-3,1.316258E-1,5.735606E-4,1.5259999E-1,1.6879651E-1,1.9757772E-2,8.1252254E-4,0E0,0E0,0E0,0E0,0E0,0E0,0E0,0E0,0E0,0E0,0E0,0E0,0E0,0E0],"parents":[2147483647,0,0,1,1,2,2,3,3,4,4,5,5,6,6,7,7,9,9,13,13,14,14,15,15,16,16,17,17,18,18,19,19,20,20],"right_children":[2,4,6,8,10,12,14,16,-1,18,-1,-1,-1,20,22,24,26,28,30,32,34,-1,-1,-1,-1,-1,-1,-1,-1,-1,-1,-1,-1,-1,-1],"split_conditions":[1E0,1E0,1.4586255E-1,1E0,1E0,1E0,2.1525885E-1,1E0,-9.764822E-3,1E0,2.1158382E-2,1.7185116E-2,3.7342615E-3,1.6761364E-1,5.3333336E-1,3.4687954E-1,1.0071942E-1,1E0,4.7860962E-1,5.6345886E-1,9.2491E1,7.8203E-3,3.040314E-4,-4.364198E-3,-2.2548587E-4,6.8764756E-3,1.6906739E-3,1.0073702E-3,1.1832428E-2,-1.6857147E-3,-2.094698E-2,1.3536072E-2,2.266832E-3,2.229818E-3,3.8404466E-4],"split_indices":[42,44,6,23,24,12,6,21,0,18,0,0,0,6,5,5,5,28,5,5,0,0,0,0,0,0,0,0,0,0,0,0,0,0,0],"split_type":[0,0,0,0,0,0,0,0,0,0,0,0,0,0,0,0,0,0,0,0,0,0,0,0,0,0,0,0,0,0,0,0,0,0,0],"sum_hessian":[6.52E2,5.94E2,5.8E1,3.66E2,2.28E2,2.1E1,3.7E1,3.48E2,1.8E1,2.22E2,6E0,1.5E1,6E0,2.8E1,9E0,3.33E2,1.5E1,2.04E2,1.8E1,1.1E1,1.7E1,8E0,1E0,1.19E2,2.14E2,1.4E1,1E0,1.91E2,1.3E1,1.1E1,7E0,1E0,1E1,2E0,1.5E1],"tree_param":{"num_deleted":"0","num_feature":"47","num_nodes":"35","size_leaf_vector":"1"}},{"base_weights":[1.5315338E-3,-5.008242E-3,6.745756E-2,-1.2693354E-3,-6.479449E-2,1.2413233E-1,3.2870643E-2,3.394488E-3,-5.2345924E-2,-2.0421347E-2,-7.1509294E-2,1.557436E-2,3.4144812E-3,2.3805792E-2,7.724889E-2,8.517725E-3,-5.030416E-2,-3.5858154E-3,-5.8065325E-2,-5.7983398E-5,-2.4273682E-2,-5.3667813E-3,-1.138649E-2,7.099376E-3,3.9111868E-2,4.740601E-3,1.1323166E-2,1.4157478E-3,-5.43164E-3,-1.6276041E-3,-5.4150773E-3,-6.768799E-4,6.164551E-4,-6.842505E-3,-4.3248367E-3,-2.6699067E-3,-7.286072E-4,3.6010742E-3,8.438111E-5,1.4278413E-3,6.52647E-3],"categories":[],"categories_nodes":[],"categories_segments":[],"categories_sizes":[],"default_left":[0,0,0,0,0,0,0,0,0,0,0,0,0,0,0,0,0,0,0,0,0,0,0,0,0,0,0,0,0,0,0,0,0,0,0,0,0,0,0,0,0],"id":55,"left_children":[1,3,5,7,9,11,13,15,17,19,21,-1,-1,23,25,27,29,31,33,-1,35,-1,-1,37,39,-1,-1,-1,-1,-1,-1,-1,-1,-1,-1,-1,-1,-1,-1,-1,-1],"loss_changes":[2.818732E-1,1.329212E-1,1.1157182E-1,1.3381474E-1,8.968174E-3,5.726379E-2,1.3447754E-2,1.4211059E-1,1.2899071E-2,4.4454215E-4,1.6559735E-2,0E0,0E0,8.160749E-3,1.0751188E-3,1.6767675E-1,5.008824E-3,2.2793812E-4,3.487721E-3,0E0,1.147599E-5,0E0,0E0,3.0441815E-3,1.0109032E-2,0E0,0E0,0E0,0E0,0E0,0E0,0E0,0E0,0E0,0E0,0E0,0E0,0E0,0E0,0E0,0E0],"parents":[2147483647,0,0,1,1,2,2,3,3,4,4,5,5,6,6,7,7,8,8,9,9,10,10,13,13,14,14,15,15,16,16,17,17,18,18,20,20,23,23,24,24],"right_children":[2,4,6,8,10,12,14,16,18,20,22,-1,-1,24,26,28,30,32,34,-1,36,-1,-1,38,40,-1,-1,-1,-1,-1,-1,-1,-1,-1,-1,-1,-1,-1,-1,-1,-1],"split_conditions":[1E0,1E0,1.4586255E-1,1E0,5.2965516E-1,1E0,2.2176309E-1,1E0,4.897681E-1,1.0057282E4,1.5862069E-1,1.557436E-2,3.4144812E-3,1E0,9.7149E1,1E0,2.8901733E-3,4.057093E1,1E0,-5.7983398E-5,9.6251E1,-5.3667813E-3,-1.138649E-2,1.5536723E-1,1.0078637E4,4.740601E-3,1.1323166E-2,1.4157478E-3,-5.43164E-3,-1.6276041E-3,-5.4150773E-3,-6.768799E-4,6.164551E-4,-6.842505E-3,-4.3248367E-3,-2.6699067E-3,-7.286072E-4,3.6010742E-3,8.438111E-5,1.4278413E-3,6.52647E-3],"split_indices":[42,22,6,25,5,12,6,13,5,4,6,0,0,9,0,19,5,2,9,0,0,0,0,6,4,0,0,0,0,0,0,0,0,0,0,0,0,0,0,0,0],"split_type":[0,0,0,0,0,0,0,0,0,0,0,0,0,0,0,0,0,0,0,0,0,0,0,0,0,0,0,0,0,0,0,0,0,0,0,0,0,0,0,0,0],"sum_hessian":[6.52E2,5.94E2,5.8E1,5.6E2,3.4E1,2.1E1,3.7E1,5.14E2,4.6E1,5E0,2.9E1,1.5E1,6E0,3.2E1,5E0,4.7E2,4.4E1,5E0,4.1E1,1E0,4E0,2.2E1,7E0,1.6E1,1.6E1,4E0,1E0,4.32E2,3.8E1,5E0,3.9E1,4E0,1E0,2.2E1,1.9E1,3E0,1E0,2E0,1.4E1,9E0,7E0],"tree_param":{"num_deleted":"0","num_feature":"47","num_nodes":"41","size_leaf_vector":"1"}},{"base_weights":[1.3825912E-3,-4.581189E-3,6.150236E-2,-7.966809E-3,5.331837E-2,1.1257796E-1,3.0313794E-2,-1.1781642E-2,5.1734027E-2,8.40154E-2,2.6277643E-2,1.4113808E-2,3.1215122E-3,1.8826189E-2,6.0596466E-2,-1.7326258E-2,3.7413985E-2,9.310368E-3,2.1690732E-2,9.889814E-3,5.287824E-3,3.6526997E-2,-9.7259525E-3,3.6976498E-2,5.680084E-3,6.6846214E-2,2.1743774E-4,-2.1605417E-3,6.0905153E-3,-2.188975E-3,5.8717537E-3,3.0388727E-3,1.4000526E-3,3.9514396E-3,1.1405945E-3,4.887899E-4,-2.1097818E-3,1.2532807E-2,1.7551075E-3,1.7498562E-4,1.5548706E-3,4.8309327E-3,1.0757065E-2],"categories":[],"categories_nodes":[],"categories_segments":[],"categories_sizes":[],"default_left":[0,0,0,0,0,0,0,0,0,0,0,0,0,0,0,0,0,0,0,0,0,0,0,0,0,0,0,0,0,0,0,0,0,0,0,0,0,0,0,0,0,0,0],"id":56,"left_children":[1,3,5,7,9,11,13,15,17,19,21,-1,-1,23,25,27,29,-1,31,-1,-1,33,35,37,39,41,-1,-1,-1,-1,-1,-1,-1,-1,-1,-1,-1,-1,-1,-1,-1,-1,-1],"loss_changes":[2.3440908E-1,1.1706021E-1,9.057285E-2,1.2883204E-1,2.518458E-2,4.671645E-2,1.207846E-2,1.4521684E-1,4.0238455E-2,1.7215312E-3,7.3665204E-3,0E0,0E0,6.709541E-3,3.5058856E-3,1.609986E-1,6.950783E-2,0E0,9.792186E-4,0E0,0E0,6.749984E-4,9.340579E-4,1.8395554E-2,6.7093887E-4,1.5974715E-3,0E0,0E0,0E0,0E0,0E0,0E0,0E0,0E0,0E0,0E0,0E0,0E0,0E0,0E0,0E0,0E0,0E0],"parents":[2147483647,0,0,1,1,2,2,3,3,4,4,5,5,6,6,7,7,8,8,9,9,10,10,13,13,14,14,15,15,16,16,18,18,21,21,22,22,23,23,24,24,25,25],"right_children":[2,4,6,8,10,12,14,16,18,20,22,-1,-1,24,26,28,30,-1,32,-1,-1,34,36,38,40,42,-1,-1,-1,-1,-1,-1,-1,-1,-1,-1,-1,-1,-1,-1,-1,-1,-1],"split_conditions":[1E0,1E0,1.4586255E-1,1E0,1.0374836E4,1E0,2.1525885E-1,1E0,5.897436E-1,